solver_type L2R_L2LOSS_SVC_DUAL
nr_class 6
label 1 2 3 4 5 6
nr_feature 17600
bias -1
w
0.001951093378309751 0.01147346631181107 -0.002977053884546531 -0.008572397222113922 0.002673596189427566 -0.002395409350482039 
-0.008977998745117432 0.006713668317716892 0.005456299599852754 0.00157538685534794 -0.003232039592795584 -0.0005383806141702941 
-0.003761344699701996 0.002205854731505331 0.003082563054301637 -0.004193043101389001 0.01190828472160536 -0.000691700705233268 
-0.01323227888164752 0.01493314885300625 -0.008289052595888058 0.007223119184974326 0.002933407369789311 -0.004206065755920039 
-0.007731169701394908 -0.01246013566044357 0.004460183253870395 -0.004187720924588441 0.01598381346537666 -0.00845976360840031 
-0.002333435664330196 -0.005319525816835731 0.007494194666877545 0.003848238815958484 -0.00831018734413601 0.005723393357235405 
-0.002411278255577355 -0.003783194307141472 0.01454496826138693 -0.01150174432429807 -0.002917366050059187 0.002740154878575577 
-0.02031001825156934 0.001355014021331062 0.01093047687156817 -0.02431140691057564 0.004077254647107002 0.01177171077740534 
-0.001755460650626266 -0.002785735334874233 -0.01926771812553387 -0.00607786762264142 -0.008871377447842832 -0.007783773676234952 
-0.002678866474518371 0.0164432348848708 -0.0009142575016386058 0.005246316907330206 -0.004651444088288736 -0.005070187152910676 
-0.007797238103856225 0.01053893801506333 -0.01086237184089229 0.0217702390741274 -0.004662454114460942 0.001016848782983115 
-0.009205248541764532 -0.009736451826838246 0.01438065255212284 -0.007241136739923622 -0.007215237613239069 -0.004728008749936144 
-0.01367896532190329 -0.004874785456955987 0.01184695313049959 0.008514318448156569 -0.002600860810656898 -0.002953256089405039 
-0.003735776165963425 -0.005820394701534241 0.008435674283490629 -0.001679254616760246 -0.002718575283672992 0.0005166805195347514 
0.007614987878351692 -0.01129039394783314 0.003243884672481568 0.005999774991080044 -0.006072831051555804 0.005402327677722898 
-0.01649791539390715 0.005304895659551946 0.003254623050942223 -0.006413103191568886 -6.320422374337351e-05 0.01122148857195732 
0.02673385360260115 0.0167326810862491 -0.01711062068096144 -0.002615135859876643 -0.008621243450540852 -0.02072142720838604 
-0.005933091716632565 0.01503220748897036 -0.01323106786135827 0.011818304378211 -0.01081804006927479 0.004931740910320313 
-0.006991531793171342 0.01550862543121327 -0.02108756337775035 0.01647302187702128 -0.007912301049708314 0.002772269328298042 
-0.004208521390423067 -0.004927892905682385 -0.0005578875188130168 0.007295329352917707 -0.006088363651192401 0.001771237876153492 
-0.002153834390585845 -0.001489978861399685 0.003238055541196871 0.0009778842407043502 -0.01629072690539558 0.006891211676152529 
-0.01321616619085093 -0.01389182830379745 0.01333631792333735 -0.001940354408550461 -0.01223085753494283 0.0168229385210403 
-0.02212413172551937 -0.002512064777501052 0.007341327187466273 -0.006227146791370096 -0.005381613149021157 0.005885530748901421 
-0.01453182727912768 -0.003531894675744337 0.0003026618690305124 0.001389316455804552 -0.0009113664375491813 0.003814560250455224 
-0.02599131192604347 -0.005586984809522167 -0.03047357283562143 -0.009968630886317435 0.03584111754200809 0.002373528826151441 
-0.01210785222188395 0.01956833126864593 -0.007330014565571368 0.01201301365221619 -0.005542835776268842 -0.00344815347505599 
-0.000249589499373318 0.004222880090397775 -0.007975562492654811 0.01143117787169218 -0.01668692477580048 0.007523408272768749 
-0.003931789533632091 0.006624913550135144 -0.002109934438156365 0.002427124096802306 -0.01003168453404115 0.001983314288218416 
-0.02526747854636648 -0.004233039637848885 0.006058542365863488 0.01284561729718207 -0.005484886671894091 0.008277403857627938 
-0.01382695903251118 -0.009081862251887819 0.01543572188070099 0.006421596528069277 -0.005586004304280005 0.004948002762335129 
-0.01110934659465608 0.001026501854269785 0.02550421678998456 -0.01056571964046956 -0.01212693195999993 0.001904482713120483 
-0.02948356067160656 0.00802179034498786 0.002675191320602089 0.001133484738858201 -0.005852850633806856 0.01197475787475046 
0.0737565260812281 0.008998973490136659 -0.02637024643065236 -0.01168944666908895 -0.02742459174730265 -0.0164999944299869 
-0.003596988881583308 0.005752933244454776 -0.0124366526965831 0.007490936258322789 0.00286554623254477 0.001884327248956245 
0.006791333655542417 0.001462849995999271 -0.01161337296050595 -0.002465839814930354 -0.003937896051248281 0.004464608884122554 
0.003396305493381492 -0.0098994389665164 -0.005801823683970242 0.006234325165792668 -0.004337770719796718 0.001995694377919862 
-0.01610224299040114 0.006769712521574926 0.005428172217911285 -0.003332264932460915 0.005842714134757271 -0.005295385505964256 
-0.01506187369099622 -0.01172606712185966 0.009971384407425826 0.009893023338526579 -0.009808262431876812 0.003195242755600108 
-0.01839196225251501 0.004911278545744402 0.004878547618461179 -0.001856233653315176 -0.008579684278987023 0.003800212606686557 
-0.01920907102594197 -0.00610805103666508 -0.012338469218725 0.01996427988788316 -0.005952832875298558 0.009995889783474115 
-0.03014333728834388 0.001438306075561236 -0.02276213053160173 0.002716691935709499 0.04063760041298988 0.003578272336062826 
-0.003755216537817103 -0.005776279751677744 -0.01559264614926319 0.01329843337162483 -0.01880672441191088 0.01772005248799829 
-0.0008133735245486668 -0.01821214943373955 -0.01421761062898002 0.0204709948596496 -0.01014113637260131 0.009442488209955498 
-0.01357707624621221 -0.005540958194382158 -0.007372805530901571 0.007777725102773764 -0.0008420840617657568 0.007294149952742304 
-0.02220709885737443 0.002960125722802964 -0.008428794045971431 0.01607462023380407 1.605945525069901e-05 0.00608957109789126 
-0.01013341026835988 0.002713657560505234 0.0003804360585450799 0.0107236601268998 -0.007099043505875947 0.0008881257469118596 
-0.02552365058684908 0.00467592876052211 -0.001030873211851466 0.004410042759649185 -0.008099058828357512 0.01484299369644945 
-0.0285431594768181 0.004337510084025505 -0.004754488066197482 0.009453360970734997 -0.005570268762134144 0.006106218191292067 
0.09964228603821719 -0.03084606900432271 -0.01629890179823025 -0.03659076624621998 -0.004276349349696443 -0.02844576225952654 
-0.019435356928732 0.004553630984207991 -0.01618462635623177 -0.0005497919097762445 0.00421783478203853 0.02780428958986691 
-0.01912516220043789 -0.003316105041320091 -0.016808993460185 0.008038267268943666 0.0251258484557366 0.01108668143612195 
0.0146751269523736 0.003990289754364166 -0.01653435146474613 0.003956017652668091 0.01829423038939926 -0.01615658532692589 
-0.001616915068852834 0.006735359189807919 -0.004018608524499704 0.0004282400271218026 0.02194019637258146 -0.01072572579918666 
-0.0188419863120854 -0.007688839488366394 0.006867055633912525 0.0173470936856002 -0.005825938070701008 0.000254458365764711 
-0.02259640660399713 -0.005710187909150084 -0.006485366285825704 0.01567617791500476 0.0001039778102160188 0.01279310670291611 
-0.01486023081944273 -0.01345947659866215 -0.006159203572352631 0.006737646600945929 -0.001336839748887512 0.01093016128976957 
-0.03079869904329393 0.0008030128625466067 -0.01074953974871528 0.01627820054764094 -0.002761449474190119 -0.0114350803390487 
-0.008476366330725536 -0.01956959548419304 -0.008837664774361728 -0.008918588517693855 0.002096660741839845 0.02895492332446002 
-0.01948873158373675 -0.004218188715931286 -0.0241966556248098 0.03024560752987256 0.01405129115279837 0.007578805478685355 
0.0009624318815471487 0.003657384550050658 -0.01454931970910905 0.008725132418449303 0.005538888804410847 -0.008342938439152242 
-0.001988112175508646 0.007842945878819429 -0.01579963499415068 0.01686854330982707 -0.007849301794848166 -0.006681659398189246 
-0.01288710586492199 0.01539070012450924 -0.002951190802552921 0.004651663214653999 -0.009074116379773857 0.002836793021490567 
-0.02476537296767845 0.00764934800197512 0.006062665001450993 0.00121894484532129 -0.001871394049475666 0.008255799401477802 
-0.0264033949743448 0.01348165842668901 -0.01669894435202979 -0.005445817077681715 0.01567444387581199 0.009321752561268225 
0.07572606687786167 -0.02547024502013465 -0.03662651632481119 -0.01425818545423933 0.004754689571212359 -0.01941334646443975 
-0.01735054589978124 0.005513000705993571 0.003900052255501439 0.007881773771192369 -0.001527824767812404 0.008504104873878621 
-0.02335907397761916 0.01606078164145302 -0.01875170094199173 0.006805581968106691 0.01750863881902612 0.003304401953925495 
-0.007993273713080751 0.01207084612941638 -0.01447030738048073 0.02211264598704726 0.001957381826459793 -0.0155855641593653 
0.01692678408198428 -0.006767078026667646 -0.007268156803668536 0.002134948472836469 0.01267793969238403 -0.01491369591930069 
-0.01522646580071517 -0.001943357522902171 -0.01199410058676136 0.01752488373194164 0.01219679373776975 0.0003468688660795459 
-0.01357252188959789 -0.008176221756924916 -0.001166833798809985 0.0008440951019765654 -0.001724488021605587 0.01831406340155088 
-0.005773056647072177 -0.01070883102482908 -0.00497512815358048 0.01209520146814279 -0.003823623272055379 -0.001814263143870844 
-0.01432262623740346 -0.004703118836498678 -0.01659894044153462 -0.006829159059106144 0.006797941269115215 -0.004524192338716509 
-0.02673001373534244 0.005908411929867821 0.003031418511564581 -0.005040505384514811 0.0007708752706806752 0.009536747722657963 
-0.009824203753489255 0.008165214448824685 -0.01571757068549386 0.03489112123317989 0.0004683340279938315 -0.009865522831564753 
0.00559140674935559 0.006346662517746221 -0.01400139204544689 0.0128239386682261 0.01712771719109197 -0.01676535310665415 
-0.007850806986693137 0.0125034992326818 -0.01955878971309391 0.01623621361171664 0.01966169590906119 -0.01394638276021708 
-0.01733162598197913 0.004028201888377467 -0.02374667739754227 0.01726587513040376 0.02111733515020684 0.004897420143529521 
-0.03198256242791999 0.004941248419320658 -0.02156670350185183 0.009770216939050958 -0.009001189917978476 0.04576878428024277 
0.0114915015870883 -0.008028454527109144 -0.01546652638127572 -0.006822053271414662 0.01186344070387695 -0.002953874916745654 
0.02150947912833051 -0.005610164375232843 -0.03332303126331831 -0.01091741642534333 -0.004644035999557388 0.004770332309508713 
-0.03596838730596438 0.01984872237011641 -0.01021059048009203 0.006473696857064734 -0.007538343493606233 0.01456285056447806 
-0.01588809001760305 0.001743188681919067 -0.0001768695754784697 0.01339002708313018 -5.645972208945894e-05 0.001389986929522292 
-0.009381133323848292 0.01054749220857626 -0.01240578271152157 0.01088859694673495 -0.0009980260497542844 -0.00526702253763747 
-0.01125807358265808 -0.008552308602782872 -0.006286944615398065 0.006886164812276836 0.00857648941823393 -0.002361505116693626 
0.01975707176602962 -0.01763216725860825 -0.02002795043498779 0.01300409277722112 -0.007681500270580147 0.004376474144759733 
-0.002513103997986449 -0.01414268925244516 -0.01713847758735918 0.005947748375008906 -0.004391661756225984 0.02091382878119495 
0.002801626891747519 0.002769254212296354 0.0003622919682403508 0.01890202078577346 -0.0215852265280993 -0.01593940449884457 
-0.01653744880266937 -0.008340614670335696 -0.01706722536997469 0.007021735649802962 0.02188342209066933 -0.009883972957184217 
-0.01408339856769703 -0.01470143682007724 -0.009261001730360171 0.01415493781059386 0.001278328264051594 0.009206394672185718 
-0.01348939878277714 -8.173090493091008e-05 -0.0001659772262907731 0.0196862607573073 -0.009027957163802711 -0.002416974241929565 
-0.01350633760458345 0.001533659129602401 0.004268894288854683 0.001839163975838032 0.006322266625066676 -0.002661285899806134 
-0.01341564478166352 -0.0003026623159579078 -0.006691243465670025 0.008576300711706184 0.01311800043984446 -0.00012896315738241 
-0.01248577721722686 0.009411196904544183 -0.008626339637779482 0.0006822806459705084 0.006666288419334735 0.001905013259435733 
-0.01028759848060141 0.004250001252726751 -0.01551724436409685 0.006406266915668667 0.001423276013303896 0.01035844377367712 
0.01359562925224756 -0.008000474833655196 -0.01215435821603408 0.00772170001938256 -0.004514807659904063 -0.009600259110166298 
0.001162571528273681 -0.01578195605005013 -0.02351401695288808 -0.02893683847791674 0.01286405229902126 0.02875655788844175 
-0.02903705473252743 0.0004271552586849997 0.004812717651867863 0.009561944552797446 -0.008716788684716942 0.01090080088596257 
-0.01904847164548715 -0.009230625255231936 0.01360766122255897 0.00714650217541833 -0.0007175012727335851 0.006439522790660165 
-0.01163276693186917 0.0001038583212560247 -0.007104281769836726 0.01480153983813774 0.005764333643989877 -0.005974951599064753 
0.002864732276801995 -0.00432354836268215 -0.004626094205785636 0.009494665834145663 -0.003009433428538763 -0.004940215212962611 
0.007329965016969942 -0.02275906601988438 -0.009212229387085444 0.02237426129565954 -0.01330552515798662 0.00882332206385749 
-0.006581572272359233 -0.01314577696332643 -0.01312647353327637 0.02102731033463011 -0.004093424637654595 0.006815021062273175 
0.00177294968696802 0.02604456914621466 -0.005494696944145359 0.01234345090740867 -0.01426438158919743 -0.02441842017270997 
-0.0304235195312215 -0.0253363900076046 0.003001180058229075 -0.01826465679392156 0.02356559167287932 0.003835768917428863 
-0.0158046378821404 -0.005671515443669146 0.01827136930753191 -0.0208094300081657 -0.003989169778127868 0.00468934117159951 
-0.02446062137175067 0.006600656356042124 0.01043917706273161 0.001289735039177573 -0.01272908149620002 0.006383349084626396 
-0.01851132506667717 0.0002368384955154453 0.00334627576682791 0.004643128268279985 -0.001766324739557545 0.005349654170909013 
-0.01000355995847167 0.0004681494043278874 -0.007164824306160264 0.01000932251987471 0.005336255103495551 0.001534350654831245 
-0.004258058682110083 -0.001680279056156807 -0.01297629426497418 0.01199614623877159 -0.008762989467638429 0.004417960877832585 
-0.005410049994686688 0.005424701923432716 -0.006709478699193893 0.0005114837167931733 -0.0074902544159317 0.008227870831042887 
-0.00615364825447449 0.0211411266053936 -0.01044940050478847 -0.0048340068423632 -0.001032839726453307 -0.002387914977736529 
0.0224317988714515 0.0006863338551069235 -0.0137017975307078 -0.02687788136010386 0.01421205457938969 -0.01416722247356954 
-0.01158999335151077 -0.01023576299668482 0.01535574561258733 0.0004838840567366944 -0.007799671371827662 0.003949817727945274 
-0.009693317349240463 -0.005085347726574859 0.007023267260773028 0.004364736773879611 -0.006434431781782574 0.008328218036506432 
-0.01273195205289302 -0.009503729166148745 0.01347728085873262 0.01558455666456676 -0.01094573427996996 -0.002023090517709151 
-0.001254176800309626 -0.001613713131472124 -0.006281046834420714 0.004190054061020587 -0.001082301320041252 -0.009486313258430528 
-0.01547840315148412 0.01291137185571853 -0.002332562080962793 -0.002588429681728059 -0.01047657756790235 0.01539240780261269 
-0.01224758999630562 0.007260343124681505 0.003712830113979591 -0.01275754793192227 -0.007770586578791618 0.01221868925877382 
-0.01616984633628027 0.0155735105309895 0.007372502898298187 -0.01612922157997823 -0.02196021272622519 0.01091213376160742 
0.02116707965935426 0.03641303803145118 -0.02088602311398856 -0.01308108396685141 -0.0008541415440748308 -0.04834096114781788 
-0.01219483569664603 -0.007200867732847716 0.02276258216329359 -0.02285152841387826 -0.00655062764533047 0.005840941194878792 
-0.01168772597341272 -0.0008027933757308558 -0.004213297605503216 0.02542534875293077 -0.0097045660331097 0.006437258034985152 
-0.005170992033910686 -0.0153537217664262 -0.003548817616117673 -0.0007585779442581724 0.02935768013288467 0.005752961276414601 
0.0156917381604734 -0.008063899987314773 -0.007719512200540847 0.005135078803099814 0.004438143262266833 -0.006127016887835002 
0.004019546224137316 0.001139574855206863 -0.004132230214475716 0.007678973695824013 -0.007603616013576623 0.001898435565122847 
-0.02352268872531272 0.009820509728211902 -0.007415182325098068 0.01130467429444087 -0.00344069894990927 0.01419274978060238 
-0.01391410055402001 0.009243655285645436 0.002159772147015201 -0.006978967815832744 -0.004750773549933677 0.006863273673539794 
-0.01870189679088668 0.01960271621279613 0.01168909671954627 -0.005240149015018801 -0.02380362255860382 0.01356900524469395 
-0.03621083934841761 0.01671535180173474 -0.0104047641747967 0.01213837827251351 0.007059654037643765 0.01362719328314046 
0.002505345570016439 0.01040626653987151 -0.00186838256817467 0.001089685969703285 0.002390968673826908 -0.001807173642085811 
0.009390043418275131 0.000945214525246735 -0.01152503502774056 0.003011849728237955 0.01938303297928046 -0.02421460839392589 
-0.0008854199203714397 0.01151911001414934 -0.009180577753696311 0.004536146837372578 -0.006844625400124516 -0.005803148420433622 
0.01609556477008797 -0.00913053585214312 0.003392674595447666 -0.002188902390662784 -0.004853867505507389 -0.004043751679140923 
-0.01857490452317376 0.003622168900768526 0.01442994065292048 -0.006381230715964565 -0.01094478757069018 0.01188214135998171 
0.007221609146054359 -0.005244318217171895 0.01652133330417557 -0.01772842904328015 -0.003687059952821177 0.0008718464512540852 
0.04925399222652214 -0.01307050197506682 0.00247058688440485 -0.01788166956336568 -0.006413558040695789 -0.02341612804960964 
-0.004445855066523414 -0.001981609189721302 0.0004884294181148684 0.001503476476601199 -0.004477728443716928 0.006802803861785931 
-0.01074045911844396 0.01780736265557965 -0.00701015870794714 -0.003611040350103951 0.001239884709623333 0.0003627852689458413 
-0.02439480892645795 0.001744939000242819 0.005249380940922207 -0.006198085391959133 0.002934597198879199 -0.002761972959687454 
-0.01364353125062468 -0.01589588884610973 0.01015913507722207 0.01084223561733196 -0.004295905305071053 -0.006930551647612177 
-0.02694345284218409 -0.01708205691128446 0.009337649439373524 -0.001231365293228161 0.002613056838683843 0.01564291489707317 
-0.0263967730306131 -0.03262227626517069 0.02415285342862161 -0.004629849638790045 0.0003716271096631772 0.01609009281735308 
-0.01408452078175508 -0.004213634004241948 0.00923853595416777 -0.005833027224057481 0.009080669847456382 0.002875654588841219 
-0.0009912051912874269 -0.008654096443648831 -0.007255509346291465 0.01820891165389868 -0.01164245019941249 0.01353003968625978 
0.01376030057197097 0.004188194555697642 -0.01455635417389152 0.02059037176598628 -0.007156909868863652 -0.01360932185969344 
-0.0006850081128039045 0.006529495425061008 -0.01819800441086643 0.003283801277249958 0.00752580820691525 -0.007350532280520353 
0.02176365763662597 -0.008621153504261909 -0.01343737382722125 0.00428851507318098 -0.002727400684513141 -0.02008660947108402 
0.007770501715156823 0.02818867050457782 -0.01175523795957325 -0.0154702013210024 -0.01917003559690325 -0.01472395408709841 
-0.01665506672278612 -0.007353186862666787 0.02453493169610726 -0.004011180390166375 -0.03434075225401263 0.0296690707918352 
-0.03572144700838833 -0.01620551115414523 0.02219915718761439 -0.01278231331843064 -0.01790095047810304 0.03259675371627613 
-0.004542586384949216 -0.02105309449049611 0.01666575429469901 -0.0135444401562683 -0.01233670583886197 0.01192276049622882 
-0.006020252035051706 -0.01377333932298099 -0.003565662370566048 0.009981409568224983 -0.01621969331230664 0.01367435624756287 
-0.009979679562360134 -0.002761867894817932 -0.01777480883339012 0.01296633151161727 -0.01633356205230313 0.02140883087308434 
-0.0001431381420826644 -0.008759387764976905 -0.02175489386134519 0.001993259957378845 -0.004459270551898018 0.01387896567743248 
-0.01458643343645001 0.01817743727679839 -0.01187083050858862 -0.002932154041361671 -0.009884945581831065 -0.0006109992588964508 
-0.01696157183166094 0.0211665255265785 -0.007389830448926105 0.005286075916531073 -0.008803939654444398 -0.005995773631129075 
-0.03089179856108224 -0.01241532680125382 0.004961937533892979 0.007646071541504575 0.01028035710438194 0.01131079476354764 
-0.03118112884624389 -0.02162891904036356 0.01347029626686067 -0.0009601334713897171 0.004030936266114307 0.01955674123618246 
-0.02469433812217569 -0.01223647574493105 0.01702148721635442 -0.002388398884398949 -0.01371744492669801 0.01944453646038275 
0.01410142015425263 -0.01533249418812936 -0.01821704744184923 0.01734194993327772 -0.02007754762690114 0.01926745083457401 
0.02237364430402179 -0.007212370462711491 -0.02707615477663506 0.01132108975413551 0.01890775323594677 -0.01831796199428189 
-0.008506692924103708 0.01406950464347263 -0.02049987199389737 -0.01148109987465214 0.04547182799872169 -0.01237296837276155 
0.01097595964222624 -0.006533653282912381 -0.02972455671137257 0.004563204688158707 0.04724992207086232 -0.03265247021378084 
0.006932476283995809 0.008074911195455723 0.003645224774937031 -0.006901346482768036 -0.005151953266211078 -0.01366048395313182 
-0.02857045558566077 -0.01059528048611282 -8.592002222648623e-05 0.01095322114349054 -0.01265509552262294 0.02681656292002245 
-0.02382852031290962 -0.03174210751122523 0.01846784935283993 -0.01694145086909921 -0.01810646129905562 0.02679948425673433 
-0.01477324285925891 -0.008585228409388298 -0.01414027348426452 0.01330685681027836 -0.0110297630937178 0.01893077467327006 
-0.01848267563836235 0.0144966754284114 -0.01198862177930785 0.001845056067025833 -0.01170960483875258 0.00765815364513475 
0.001136309692244095 -0.005595883702717524 -0.02067749758022364 -0.01211226020209358 0.01031747229789048 0.00803503898610876 
0.009973574816808531 -0.01553682498021825 -0.01325754627700104 -0.001737496775200169 -0.006182392816247159 0.002629503940562692 
-0.01759480781325824 0.01204123638117138 -0.01628806168683223 0.0001544837422310196 0.004981244407403908 -0.003439876119667568 
-0.02170457123937233 -0.005693785516320457 0.004821693541929494 0.01103269321287178 0.00216039667067554 0.0008815495601595892 
-0.0120235473830826 -0.01911672989990291 0.01397184802190528 0.002071483173136296 -0.01731662333111047 0.01769990847678495 
-0.01028398134971183 -0.02260984617994739 0.01185416576661757 0.01610230315168584 -0.01463331088022524 0.01072800153443075 
-0.007776180475974616 -0.01407437404116026 -0.003442304195498932 0.002545118012130408 -0.03276627872565373 0.02928976121750489 
0.02341981804463654 -0.03396382332021509 -0.02368351298323758 0.0002916036391515188 -0.00889739833196574 0.02046685051203147 
0.002285024443254896 -0.008154201689274049 -0.02634720319671732 0.0024032793896721 0.01483685495178123 0.01485033635027351 
-0.01419116835359047 0.0161713756033345 -0.02362535941178539 -0.01081950604021984 0.01599501449374445 0.01972401891030976 
0.02335068555066961 0.01267953990510229 -0.02343099543601993 -0.004420623978274916 0.008956536326078991 -0.01082758483555193 
0.001125715830176323 0.01051201159837792 -0.01040484286557437 -0.003566948841871723 0.005481346976914618 -0.00123962843822361 
-0.01488247257639749 -0.005167791191549047 0.006709434242854923 0.007463498637075446 0.007820571057149249 -0.005876825526059935 
-0.01798094013602329 -0.02334263246052985 0.004843162539700309 -0.008114998603373095 0.01381111468434338 0.002618487136563238 
-0.016976370681251 -0.01644628664903313 -0.02401818944054439 0.02229602445617454 0.02060595160316409 0.001603913075908796 
-0.003312151033216818 0.01449099247270754 -0.02446561932680265 -0.009504158220365959 0.02530586012850691 -0.02116305210991197 
0.004169303737997562 0.003197820327105642 -0.02292410246059239 -0.004883071014829772 0.00528697527971242 -0.008777944620068475 
0.009055309000187401 0.0180250279055265 -0.02002677212383001 -0.01246392884665465 -0.003050482531031454 0.0001804724679180926 
0.0001407149101736106 -0.01081521057344968 -0.01853429117225443 -0.006074616327474705 0.02214190950680892 0.008029955277678844 
-0.005739257000186422 0.004471225646517166 -0.01423818751678449 -0.001976029495861598 0.008039622085204871 0.00325818785801435 
-0.00086023085573644 -0.01035250483631978 0.001594900687235558 0.004089337394271906 -0.009870109268972461 0.009272620331876678 
-0.005608100109602793 -0.006198116880975784 -0.009338131418417741 0.01553212236236014 -0.01616958159029924 0.02415777923735673 
-0.01265775762611591 -0.02453527846987122 -0.01284334239843373 0.01924085854001343 -0.01125338940839083 0.02830399765398117 
-0.008014744450507094 -0.02601146616218991 -0.03187902587166552 0.03058692077666085 -0.001446700994803803 0.03768420661305898 
-0.01229628403704913 -0.01344994635836187 -0.01483027964347317 0.02019443210813907 0.003230406691775644 0.01888597720802447 
0.006823477318794599 -0.0130986889134913 -0.004463180089261021 -0.001081932302568095 -0.00393111540184564 0.01437852276395564 
0.0151732590153574 0.01325751853192806 -0.01141596821172768 -0.007446953462990354 -0.0113064757572463 -0.005393113828259464 
0.00575690780245035 -0.002191165600320575 -0.01406736318434919 -0.0002584811052242609 0.009177083941855322 -0.003717526668323306 
-0.0005612116834041032 -0.009261370480982779 -0.003994470786718307 -0.000240416960228931 0.006596680653065789 -0.0005829946194333983 
-0.01674453654804927 -0.001373343238912043 -0.00921710745398817 -0.005724011320243499 0.01616924809577656 -0.002484361281410257 
0.001306419308882217 0.010398063017106 -0.02092143449237573 -0.01598129103797708 0.0329065796938134 -0.02279003631461119 
-0.01090768054835821 -0.003277313008902088 -0.02144906564515177 0.006655945398474257 0.02337042515875816 -0.01659347078291947 
-0.008118902249613261 -0.0188986082655084 -0.01602072200841959 -0.0001750382331751193 0.008915123084124003 0.009241547339371799 
-0.01849824306591117 -0.01735362768927592 0.02156146904179605 -0.009692461525979907 -0.003555601640759292 0.01186409449379126 
0.003246550623648649 0.001149519996055685 -0.01304235138038892 -0.002226978338748146 0.0148557090684433 0.00308264251158666 
0.01090416109662803 0.017283185102308 -0.01896671944329504 -0.002307973239520475 0.007929700660006929 -0.007323527039693692 
0.009846316335224495 0.002636687929771102 -0.01760085714965345 -0.0002403031765850009 -0.01126578480927566 0.01907889525095656 
-0.007038086588271256 -0.01544838095866484 -0.02351264738947018 0.01203148264762953 0.01020139744566518 0.02220790835348469 
0.003914776229484353 -0.02947318650050394 -0.007874420842766858 -0.0144230235713538 0.007534419132655992 0.01666225534025675 
-0.01372400069985893 -0.01394979747692898 -0.02536981658767261 0.02596110580586612 -0.0114366714995105 0.03035953940873789 
-0.01363362181751854 -0.007953499388143404 0.004658117410045687 0.004916904942875364 -0.01038328379614458 0.01603660749918335 
-0.01109832263661708 -0.02273528920725632 0.0147053679067106 0.008819795645942081 -0.01867034532031495 0.01880038531001477 
-0.005049009953949786 -0.002480489044278839 -0.01880714891670013 0.01045665254058727 0.003579759805615969 0.001283395552988076 
-0.008154126572556679 0.02131765175296163 -0.01783218006962512 -0.006122720613858306 0.02251959256826564 -0.0180965461025978 
-0.01329624572823352 0.01023338294097468 -0.009254412450337446 -0.004219508816548194 -0.01127108104763973 0.009322477409758992 
-0.003386921363685289 0.009539025179741173 -0.0176877052218178 -0.02513628029788864 0.002040310107177702 0.01392160316089988 
0.001935651187544434 -0.01418276960053235 -0.02084154210629035 0.01276099348730156 0.01016570639524611 -0.007850702787852963 
0.0004592778928774014 -0.004911332764658364 -0.02030384687969871 0.01653270657635216 0.00689987157032793 -0.01158297794536142 
-0.009766448459505689 -0.04615016870192601 0.02971742775424739 -0.02174252110081946 -0.005340496267850867 0.004210145765099849 
-0.01762124027033371 -0.01714737357362893 0.005933566490739388 0.002968724221015638 -0.01902756012660792 0.02628815198315974 
-0.00753297099081241 0.004455992595327689 0.002760836375719714 -0.004474253320440687 -0.01095734638909528 0.009901541739454012 
0.004531034817648551 0.0110425661277223 -0.02727201303390363 -0.002479101957435044 0.03046995447069177 -0.01606403978336101 
-0.01000562020456146 0.004498426274660858 -0.02421617278864141 0.001781752294114679 0.03126163125713995 0.004794797564847995 
0.009415042971457354 -0.01758373605106515 -0.02936336241273061 0.01486125453517503 0.01961651493083983 0.001872862239328998 
0.01373812536030496 -0.01044169693255361 -0.02016802534478278 0.02235286889687645 -0.01738514049102961 0.007272636837585093 
-0.01576535880851365 -0.01206355166415747 -0.00432413826578057 0.02188115663382186 -0.01823999375653674 0.01872738787939522 
-0.02901948823766975 -0.02742060057234295 0.0347708663362301 -0.01402983984561772 -0.01429388365917308 0.02037844732239448 
-0.0261003884469868 -0.02248459833364454 0.01004125512307368 0.002812096516378676 -0.005644197530687844 0.0187677388235071 
-0.01648685727417842 0.01944551058774942 -0.002362787811934175 0.004146620718929773 -0.009382284748984395 -0.002189948358971096 
0.006419836464786541 0.007003700082493715 -0.01769547834557053 0.001579936148740571 -0.01122116085770433 -0.003603769050753697 
0.003677788899158234 -0.01778534096116724 -0.02129641531417764 0.00273480784231868 -0.001060952448854309 0.01353189521694458 
0.006892288510542121 -0.00534352042857057 -0.02215067196104584 0.009676277042396155 -0.0101711187429754 0.005142488694936618 
-0.0129655435947515 -0.0157303015587818 -0.01379171286037588 0.01312027116908653 -0.01685110744697418 0.01427235704465488 
-0.0127438558125719 0.001370508828448476 -0.009323880919487904 0.006531366687506908 0.001836569081969456 0.006765540229899188 
-0.03729163402192328 -0.02926639730867976 0.02654762145273082 -0.0149612181127393 -0.01185463610954958 0.02655613318961609 
-0.03709305428153372 -0.0001496821005873012 0.01582989209616608 0.002216049261382384 -0.01284786504342997 0.0247334146538326 
0.001639771623918774 0.03241239919165137 0.002277611092483386 -0.01552849435242095 -0.01758140745060155 -0.009239729889378104 
0.01983319691221505 0.01137636093381768 -0.0132884430544401 -0.00710667620666649 0.01208357232665221 -0.03753161879017556 
-0.031503015743571 0.01251034705186778 -0.02165525442441006 -0.0004299360624641527 0.04692297046758068 -0.01263042545102795 
-0.006616136298543235 -0.005003297195448115 -0.02405444398451209 0.02788876787866123 0.0305152542959619 -0.009932818074923862 
-0.007847127564482517 -0.005432666036605994 -0.0158544552685186 0.02634165462317694 -0.009289623752070986 0.01427068423518708 
-0.03705871307640547 0.01680196900751341 0.0172365287728964 -0.007740958314520209 -0.01477935477514888 0.01721195465257497 
-0.02465377629414443 -0.04088451704742997 0.04159005363215583 -0.02041612155801825 0.001266030221738649 0.02222286669536778 
-0.02259959028250344 -0.0117944674498233 0.01611881061694224 -0.00785040003766474 -0.008270336405336875 0.0190793174679013 
-0.02079112218055176 -0.007834228393474288 0.009572173102067665 0.0152189969566469 -0.01025975008120922 -0.002736124809156161 
0.01386603838103844 0.01359948314602725 -0.01022717937116941 -0.00519724887058264 -0.009148233063126168 -0.01284328612559933 
-0.006120304472193274 0.006201151014326608 -0.0123941410414666 0.001244264343636694 -0.007278327978953639 0.002716241258417379 
-0.01411464169641148 -0.0002888786935429729 -0.003377716937919466 -0.004558685110123678 -0.01589421802940683 0.01797865180878435 
-0.01283584944602111 -0.008762872475001878 0.001580502165220374 -0.006019845466912938 -0.007130815124247627 0.01598364220370954 
-0.007114696663820798 0.01876656408399076 0.002213306873892805 -0.02968351141317373 0.001459434141753746 -0.001886670627795033 
-0.03869905004831901 -0.01282883842914785 0.02047601509298583 -0.01189439263685736 -0.001279839331323895 0.01967868591088805 
-0.003038645545647201 -0.01715389465062053 0.01348036222049918 0.01516447972544365 -0.01848228477589208 0.005643908864793596 
0.0008637798751095366 0.00500984530427101 -0.005463372201367118 -0.001885526460396525 -0.01178077717495803 -0.0029462307206927 
0.008630046838435577 0.01302355196267334 -0.02830532573367702 0.01383515600418532 0.005498235592855373 -0.01350431904540289 
-0.01312033684096899 0.01263955011321053 -0.01654828302375176 0.004243886713546729 0.02361844333552151 -0.008099794263231945 
-0.006544342444726877 -0.009196943354218398 -0.006753194206336199 0.01715944274538227 0.004829664540188546 0.0003745808801421811 
-0.01438848932549908 0.005518342774037803 0.004685462276446317 -0.003007086916430584 -0.008320821153128957 0.007866460366322863 
-0.009317346442325781 0.005085874392797538 0.01040323584270981 -0.004635050969606669 -0.02638987697904236 0.009937131077104653 
-0.01781318446190056 -0.01206745198666315 -0.01523028131454944 0.02547766333053601 0.01947448779105265 -0.006079337323328468 
0.01024879821796111 -0.007057924901776947 -0.005222848669391882 -0.0001206248118683787 0.00198399933022377 0.0002176308090625024 
-0.02274849034897112 0.02058142665949227 -0.01843638744506068 -0.001825821821374772 0.0005308622744174751 0.003521123531367364 
0.02748951990480188 -0.01478021313668851 0.00400912032724293 -0.00989080404679645 0.0102772297677553 -0.03274932156887541 
-0.007023809445138711 0.02846747776288737 0.00175798065615765 -0.009094489357367702 -0.01130317769631355 0.003647046957631295 
0.001119643978646048 -0.006752579931517122 -5.44356362435115e-05 0.005890414936476062 0.001832933651507758 0.000366365510048038 
0.01978019102233933 -0.01094559211340039 0.006672595685738178 -0.004729318730103627 0.02540821544685019 -0.01120700509197995 
0.03010628349021101 -0.01318087602803874 -0.01143535679125998 0.01966071521352007 -0.003956161080879313 -0.02998160029450894 
-0.007045267117288504 -0.0005448716900969147 -0.01906210552093154 0.01399047192478538 -0.01020945545526227 0.01112574457703912 
0.005462793887251333 0.02140736842900939 -0.004603623561378074 0.0005445421659785686 -0.01106677919469581 0.001768232071496935 
0.003769395811084236 0.01465784812906713 -0.00426008472289145 -0.01777213950212393 -0.01739143988490326 0.002485348730773921 
-0.01747520946559332 -0.001687488533086304 -0.009512069879443922 -0.001136359965855652 0.01286691637606214 0.009747124701527672 
-0.01268825921040777 0.0002489689089345975 0.01311556124032381 -0.006298223973377541 -0.004864871361487311 0.004810875115155345 
-0.01734712458388157 -0.01841904635789396 0.0122664797051556 -0.003047610873819852 0.00171526961606984 0.01199692723173032 
-0.003213710251887907 -0.007588843591813653 0.01668539071390573 -0.009824657657321028 -0.003140659536459983 -0.00466621795577894 
0.01085716807980128 -0.008145096980427126 -0.005394545762514141 0.01161633886093009 -0.001365522144564503 -0.00500337947072367 
0.01875828737407667 -0.01956701821328345 -0.007293541272407529 0.0153825881492115 -0.003677999748351128 -0.009298982463350342 
-0.008245438471215812 -0.005404177878573124 -0.01159630693789048 -0.01150564758581869 -0.004167148472749165 0.01198760282313623 
0.03982807323702619 0.001589930164982379 -0.01644479522109463 0.0008624693633934034 -0.01863775150336564 -0.02285095025676698 
0.006119874831214616 0.02193762870518079 -0.01245746981154408 -0.008015913777911648 -0.006627338057788312 -0.02206455532843855 
0.0114823816163207 0.005022336755678689 0.00496060464567868 0.004819107142541598 -0.0263777192155008 0.00265792510122344 
-0.01351583563414656 0.006554578656627202 0.00766173213468418 0.006081912272604096 -0.01573913456875909 0.00776362318695385 
-0.02245083290979247 -0.0002366733983674386 0.003768955078206978 0.0006347610240020712 0.004297390101496797 0.004788773623729439 
-0.01618813332931882 -0.01151274379538644 -0.02464911989820055 0.03048522604171552 0.007512936099158585 0.006673560671117487 
-0.009333043222976513 -0.01524356987571644 -0.02016377094740483 0.01487760924531099 -0.001434696380249617 0.01600077043932944 
0.007484653083274081 -0.01364896576533137 -0.01958479152165129 0.00251802508580843 -0.0117080622993014 0.02528685086579362 
0.01935768414192421 0.04063103405723932 -0.01492720323580526 -0.01410872489352226 -0.01226303425691171 -0.02173954613699939 
0.01236733708327765 0.03063741145511613 -0.02725521159417228 -0.005055399707223194 0.008372589473074609 -0.0271301358929483 
-0.01171028537523815 -0.0004936208167415375 -0.0007734052823403757 0.005622045553284065 -0.002974307471415745 -0.001735332062196212 
-0.0162412879658956 -0.04731223021045711 0.01467644334133785 -0.003470231730292185 0.005209051296104342 0.01636897005331045 
-0.02317676426493489 -0.02498128043580285 0.000635976290188617 0.002665399427323303 0.001755317261825779 0.02172133330050944 
0.0313091781259025 -0.008908997894255146 -0.02086405423548012 0.007125218937477921 -0.003171116488697459 -0.01541260386237591 
0.007477999287796709 -0.01035905843708893 -0.02424572121947204 0.03152698333055078 -0.009519714313583829 0.004197564324774483 
-0.01501756436776277 -0.009307033042704652 -0.02233333379433309 0.001335062251386311 0.008210717790090293 0.02901292683810994 
-0.01887411671527784 0.02453125585428119 -0.04137716496981217 0.001054554997357225 0.03695313764777815 0.000981733159383769 
-0.01766436853091028 0.03432084662740439 -0.01820434403324049 -0.01394280319687995 0.01445515356180209 -0.007957398541935633 
0.002318604535784854 -0.01259479430216892 0.004783016754512096 -0.000445886619200757 0.01866225409321413 -0.006423689960754023 
0.006877706438788309 -0.02007670982481902 0.001084613547477858 -0.005894529931316512 -0.006673628786942424 0.005069977003784721 
0.03876423484429766 -0.0005553427435413845 -0.0167310942995135 -0.0005418464062161096 -0.01690164181247996 -0.01612915524867591 
0.02828919400550036 -0.002663185053817646 -0.0213439308405838 0.01592443888522858 -0.01686940650335883 -0.008451985750096281 
-0.01530982039971496 1.538336979220358e-05 -0.01459303113287172 0.00908088026551563 -0.003019949061465051 0.01786929454571278 
-0.02176055756447526 0.0009361026272402795 -0.02494421291860194 0.0003943166428265113 0.01305781894039797 0.02174974589485305 
-0.01277670688869786 0.01199947333377539 -0.02762650084294565 -0.002366261989210556 0.01805008841531961 -0.002538384766320296 
0.001621366886652349 0.0127184673990614 -0.009494067911938178 -0.007249642137007982 0.009446262587836393 -0.01927817813146425 
0.007198191557793989 -0.01768813746480353 0.01158452063301148 -0.002600394508976545 0.0008174323521278609 -0.01239200796219292 
0.003946886540448089 -0.03995366516779598 0.01658554961837709 0.001695514017507201 -0.003860042335475188 -0.004310894897915431 
0.01811526481555483 -0.02864305610775769 -0.0007759133287805469 0.00735167709922843 -0.008058461558691535 -0.01100594280862428 
0.008597159939223229 -0.01160188905291401 -0.04077681332209143 0.03137817921692196 -0.01788882199026021 0.00661485543354822 
-0.01793268892303755 0.02145498176574645 -0.0292560471085151 0.008841206248510499 -0.01811001854256247 0.01339336743945955 
-0.0138573221899607 0.01113341484355853 -0.01340117795987589 -0.006468889790411006 -0.01329662423407324 0.01971923850572843 
-0.009735427304265467 0.005482449728738501 -0.03259911638086829 -0.01218611358077319 0.007209398293533589 0.03280773853078895 
-0.008038248094021889 -0.01727760297915239 -0.006616024315858791 -0.01749876705574702 -0.008181178111448544 0.04295976625345308 
-0.02419941783662324 -0.0310824841949176 0.008335760214793767 -0.004857415881943598 0.00294173494051461 0.02493033821908866 
0.01130810673952956 -0.047740967839815 0.003590391850375016 -0.001385234964472018 -0.01439650559850572 0.00783831590418861 
0.026576198484499 -0.01547459540422275 -0.02922224102666771 0.0179885412056057 -0.003969420625780798 -0.01510863716377389 
0.04327111405532876 -0.002687261478462019 -0.02965884800294234 0.02518359868630379 -0.006657176582769079 -0.03280720877981274 
-0.005411542838068039 -0.001890745043174481 -0.02343301371490978 0.01205784024455644 0.01830905684408985 -0.01228572248225719 
-0.01697381391888588 -0.002188102494096087 -0.01492113528163916 -0.0006262218274335656 0.0379766516600984 -0.0185197938379499 
-0.009778537696146844 -0.005018186909031948 -0.0201800364186295 -0.008731479852433222 0.05708962806284922 -0.02341804628795055 
-0.002446292763318268 0.0003311372385920751 -0.01591857138102713 -0.006394708130591926 0.0349129517417071 -0.02405300233275473 
-0.005191423127277804 -0.007029375111644627 0.002663296278914492 -0.01115003699596603 0.007981454294667322 0.000198747643897671 
-0.0007602919027030553 -0.01688967600705089 0.01134232336578637 -0.009644337831040673 -0.009730504225974341 0.01080666654542723 
0.01798761085824313 -0.01963716623809679 -0.002981855826063502 -0.01111611828687855 -0.01499163354534829 0.01403062062610682 
0.009029139700815678 0.007771690886913677 -0.03270965353587708 -0.008782559805907529 -0.007367684093527907 0.01520007691931415 
-0.01594664589650212 -0.01665469878585028 -0.001786304812909985 0.01200357828889646 -0.009304240506865017 0.02054539147803789 
-0.01005583748590958 -0.01529268809131176 0.003474048107448102 0.0006825473066499151 0.008984968189458414 0.0078592686372133 
0.004367852248280262 -0.004167237881636672 -0.02511324614616232 -0.007553699607622928 0.03075963677777407 -0.01321973402006515 
-0.01988446034717471 0.006597913240345212 -0.01853644949604639 -0.01002913130487094 0.02748352325163761 0.00473998870603511 
-0.01515161385888105 -0.02110377709678195 -0.002171225317742238 -0.008436404371482145 0.01628790889245101 0.006729831794262476 
0.006765549222545788 -0.005052587479353846 -0.01272822467339151 0.006999357722049935 0.001987908689208879 -0.02117580103512939 
0.03411693546374944 0.002589797460071947 -0.02790658523854554 0.02525217597869676 0.002256988996922778 -0.03965815936835494 
0.04424509599739659 0.001847707274080837 -0.0300352909670832 0.01027109499248973 0.0006345829592317609 -0.03257120591633281 
-0.002192923681973621 -0.03537067086902199 0.009239783392108914 -0.02126715567968154 0.005232772305601908 0.001729513548314331 
-0.0169707637087953 -0.03008586392177259 0.0008301950758888621 -0.007768913164296649 0.01471622333461337 0.01161319500354036 
0.008296190895986714 -0.0123150783544824 -0.01017124373756293 -0.01057379437036004 -0.01788567347194386 0.02705882144146078 
0.02069636880037641 0.004462819116500132 -0.02644073126286551 -0.01036933584415733 -0.007111179843999545 0.009046333657752795 
-0.01362723490069351 -0.01149374671701997 -0.01179493194773345 0.01357641794080342 -0.006319108986581938 0.01914812258156204 
-0.01490494169298305 -0.01239460455255415 -0.02147953459693684 0.002440585829565604 -0.002549226193132716 0.0244909770631402 
-0.008170800281325753 0.004251973969274909 -0.02173605831789665 -0.01145529257789432 -0.003516828078789456 0.006068468900101369 
0.01695924128583794 -0.02885436624606399 -0.0179700186981277 0.014161964448208 -0.008863695205924033 0.01046087847682842 
0.01270457526514021 -0.04328306163883583 0.03290209118856593 -0.02100680990060651 -0.004050773992802932 -0.003348262815718552 
-0.006213808160113944 -0.01784280222108723 0.01184034086942274 -0.006145431291729804 0.005445375499708385 -0.00315049887771351 
-0.01251491101843616 0.007380391251961759 -0.01535523019272317 -0.006157220201351222 0.02123662565041475 -0.009761305549927376 
-0.002936227262654055 0.03135619066167065 -0.01758123363404454 -0.009167100113010604 0.02147466667203149 -0.02620981168259678 
-0.01623851413616901 0.00489530999189205 -0.006245641428662773 -0.001750561829126635 0.02373632653668572 -0.01725310218009347 
-0.01802795042883668 -0.001401832616607659 -0.02254322326619632 0.01929667930843868 0.02207445746129958 -0.001134530738008511 
0.03429310920289025 -0.01666485488125894 -0.02745645443918889 0.02629724444914661 -0.003424093975854268 -0.01825973058724087 
0.02681362629244393 -0.004221028934184954 -0.02310199492976673 0.02369152117017416 -0.02197729351064884 -0.01215395979243612 
0.007610226648116542 -0.0227700470506401 0.0199415639321355 -0.03151818847107562 -0.009213086071536267 0.005143732556800528 
-0.02143886212829262 -0.01195893535088723 0.01876571162243192 -0.01317418064011009 0.001858501500565456 0.01608478645612845 
-0.01958113967950093 0.01174094942091201 -0.008009654675729044 -0.01121918479822292 0.006817412142787065 0.01162639639814565 
-0.02597799615621601 0.02091445407750214 -0.03104228186153485 -0.01271922745204286 0.0004994485502367886 0.02750581079738991 
-0.01445727007061399 0.004907190088687952 -0.02179495551583233 0.009857114630050706 -0.01742804807671975 0.02704837196638591 
0.01394336794161641 0.0006291886902402501 -0.0184036447881999 0.002258988775297659 -0.006278160132410104 -0.0004687064395743159 
0.02073354907396143 -0.00735555887097728 -0.01496233626358235 -0.001459929488404808 8.655491332250237e-05 -0.009020205937384649 
-0.005764926964523959 -0.02061528114456938 -0.008088642728144163 0.009992576344364148 -0.000853884735198442 0.005631270514930434 
-0.01082457794220354 -0.04833930742741586 0.02637972791684607 -0.01418578871957622 0.01184638007940002 0.004120199359850668 
-0.005757583456101427 -0.01332715279192589 0.008906423116101854 0.002241014862456086 0.0002957514601016112 -0.007980157063881676 
0.02040967808038609 0.01407361955427831 -0.004427840863844995 -0.005343265843696566 -0.009414837434383072 -0.02157772521278597 
0.001951032220468056 0.02365232626611666 -0.02703918552288109 -0.0119589112052657 0.01000862380235904 -0.005561498027283759 
-0.008576567131473145 0.009129038134164788 -0.02091945994092927 -0.01111527583890656 0.006028840309529426 0.01805001841155643 
-0.01617808506253224 -0.01136891656203763 -0.02131793538833176 0.01082648301648081 -0.0003865686933558152 0.01271301543208438 
-0.007649783878893153 0.0006104426213613488 -0.01508696373077085 0.009685395211814248 -0.005412383354745082 -0.001508370684732615 
0.004712972796037241 -0.007249934149678233 -0.01478246154135122 0.02759223193512542 -0.00743593598581608 -0.00458869790769349 
-0.001947987556005794 -0.0260837053541374 0.0196817071379521 0.003560611531429014 -0.01051872521209158 -0.0018786431924005 
0.009594103602326329 -0.01331910058562128 3.022949617663202e-05 0.01049897710653811 -0.003062352105912563 -0.004699132361266507 
0.003451836119267941 0.0361886680001042 -0.01308329953543913 -0.01260684689745896 -0.002612265474475401 -0.02062444179729361 
0.01984299832225218 0.005814531532663569 -0.01218785688760927 -0.007156776866791279 -0.0009504137000561987 -0.0277902355517216 
-0.02242889770006791 -0.01124996697964801 -0.003955681327174411 -0.003407583347727517 0.009111936548833499 0.008945612740698957 
-0.001327355052065413 -0.01422962375983841 -0.006496200375218583 0.01732732497764815 0.005560114531001984 -0.002566646024716273 
0.01169461926105895 -0.005809374875597362 -0.01220026454710875 0.009792424542788655 -0.006744359944234255 -0.00186874052734013 
-0.02595035681386807 0.008810085374326111 0.01437969171967947 -0.01025700747043027 -0.019951522308892 0.01242871290226143 
-0.01643479130131355 -0.01797537407357461 0.01141857538776815 -0.0002610030744786516 0.002197586944965816 0.009257880995681634 
-0.0156875736241828 0.00496522181701053 0.003057161247257221 -0.006427411980984381 -0.004596553043716135 0.004141721388638535 
-0.01816776184294875 0.02013432047532128 -0.002505563346600946 0.002775063983196257 -0.009040721025913068 -0.006512053248220705 
-0.002485284423988707 0.01418051244562873 -0.01285616342946425 -0.01624468513941597 0.007202032020163509 -0.02283502942331827 
0.001639436260437044 -0.02002631850962826 -0.009601916174399825 -0.003800983766400531 -0.01528289378521869 0.0356344515457264 
-0.007823705652210078 0.004103980908607854 -0.01976475574230637 0.01632885261230019 -0.001979178403885127 0.00480404085121314 
-0.01362953229428397 0.01964611212468564 -0.01029241893736415 0.005676167319229874 0.00345979765775048 0.002341781869413934 
0.01682127633134803 0.003746632534031631 0.002390820421457093 -0.004209613141614616 0.01711455262290478 -0.02250599435838972 
-0.00720582296818554 0.01279393674541527 0.01676069961112472 -0.01234001556935513 0.002815235897728527 -0.005487443112205088 
-0.002363584882875305 0.02306627903187309 0.001530857110105364 -0.001733217039402392 -0.006997377432838708 0.001867182868551846 
-0.003535703993386656 0.003603169354321903 -0.01559358805575764 0.003201475409326115 0.006438319935901583 -0.01111110995705837 
-0.0183287886882034 0.0194777088334883 -0.02328043903361271 -0.004476942404547962 0.001319605660532693 0.00161324311959581 
-0.01384522588534761 0.01253107408754399 -0.004186431236529124 -0.002953201453261271 0.002109880716744277 0.006011790250409761 
0.004227919417494876 -0.002137674797385853 -0.007974255913641207 0.01972316468750537 -0.006578426158082221 -0.003128932473407452 
0.004131059775974147 0.01345987662400026 -0.009795633299457939 0.009064101861994519 -0.006899686208628588 -0.006245086709180963 
-0.01477085824647396 0.009442431046373104 -0.007256483630670068 0.006946391062741037 0.005758780851370553 -0.004409139970648196 
-0.007736730229470248 0.01701443087054347 -0.00797630107481277 0.0005932955658050572 -0.00408078566987673 0.005250293762380535 
-0.00770698450574735 -0.005048674352141777 -0.006754668266283188 -0.001049768440171135 0.02936592663690338 -0.01412131716340568 
0.003398273725173311 0.01592216599392503 -0.01448887141916823 -0.007073484927844919 -0.00833306492078496 -0.009374283993533877 
0.01956320563486129 -0.01080146210838292 -0.004097078509165172 -0.02011829154749683 -0.01365293590572838 -0.007578444500590643 
0.002140105909838044 0.008441336628936029 0.001952628081126783 -0.000942664375466672 -0.006756084304171264 -0.005960816171132338 
-0.005271368658657388 0.006754862106945064 -0.001602991845493957 0.0009415203989542562 0.002997839860050112 0.003184251907001569 
-0.01113338691024572 0.009888854089633201 -0.003343312725295273 0.0005421961250024862 -0.01100366495427395 0.007703437489572672 
0.06777826444540604 -0.01284277235425626 0.008101461164891339 -0.005875444772839349 -0.02000616553856954 -0.02634662993742293 
-0.003132415593642568 -0.004103202717318652 -0.01896811446086767 0.01584676847227459 -0.006161595454978379 0.004664457106992817 
0.01123545846771083 -0.01982935507017094 -0.01001784704594774 0.005427668415688835 -0.009460594413916407 0.009977805950410567 
0.002393516749596525 0.001381870106982203 0.007915681458263638 -0.01835897883438063 -0.01677430051421877 0.01304569055665162 
-0.03183632201658616 0.00680169750897271 -0.0146106848824186 -0.003995605440147165 -0.00122629072249385 0.02086680858381021 
-0.02037724400407143 -0.001584456737091846 -0.008166922895521169 -0.002861197880400354 0.00512834323212027 0.01481824159254592 
0.001512461704739311 -0.008887908967134636 -0.008824354453718094 0.02203809500033014 0.004958355551840353 -0.004862955298965429 
-0.004496807996766891 -0.00264991201097643 -0.005984749048305455 0.01259981041492599 -0.002509973029111873 -0.013378127685176 
-0.0009829170623659881 -0.0005222241935668594 0.003735480677438822 -0.0005240710777451993 -0.01089306040838649 -0.001994668291641895 
0.01402065867296726 -0.006166339289866943 -0.006248814506585849 0.00813222462151667 -0.0005543830819284939 -0.008043086061674466 
0.01821182358060076 0.0005187942663435567 -0.01271188509000954 -0.002160172472143406 -0.01136173351248029 0.002068163627012393 
0.02363132275589191 -0.004511496889292674 -0.02221516397215453 -0.006447032797711507 -0.03262215906284622 0.01756574338883005 
0.03093115322193393 0.006163619605179325 -0.0158086095541835 -0.01557680859554419 -0.01805292363558629 -0.007415823413899509 
0.0199632553226332 0.004004845770869675 -0.0001776828483809571 -3.993329746238031e-05 -0.006596325039822631 -0.02035023099658523 
-0.007906934744462095 -0.005124270673283133 -0.01129979816648259 0.03285093003212093 0.01082673710548201 -0.01289124392369838 
-0.02012016602373384 -0.001383489304322187 -0.0097375594920308 0.02156794219244882 0.006358340325290485 -0.009512403726942941 
-0.0216720512478051 0.002631272200003541 -0.01182556909778885 0.01884004586117921 -0.002056113965612102 0.0007913918186856689 
-0.01503326968294177 -0.005430962916665965 -0.01620335826609716 0.008089934828581625 -0.00585217445683658 0.009416307970158624 
-0.00362837888534007 0.01713966107491206 -0.01577592375479454 -0.005729594712009448 -0.003977530538614741 0.003078738083004439 
0.01896576065874534 0.02128841531261465 -0.01576126009185264 -0.03572668081723049 -0.02222318908430452 0.004450806685759612 
0.006483390061374814 0.03282191599527407 -0.01749438040776223 -0.0261313811235202 -0.01198543100101743 -0.008740038402514114 
-0.01901799291128159 0.02582621452094104 -0.007595085488123272 -0.007431616705461804 -0.001440521232423614 0.001589800871543991 
-0.01940660671652574 -0.013197335665979 0.002955359909550244 0.004260344376556623 0.01246683474539619 0.004701345496439614 
-0.03394735850899015 0.0002967477784034321 -0.01316084017352862 0.02457721948690603 -0.005557504177169591 0.005154828230586586 
-0.02055852055910068 0.01797997124594017 -0.01401944643013672 -0.001766323244881922 -0.009768113023170339 0.009805066467741442 
-0.01059759115356392 -0.009428882806728395 -0.0121889868202868 0.02481210178502265 -0.004319203510785818 0.003363105069078005 
0.01093153333901152 0.002761789499128975 -0.01958154749385086 0.008141834170131609 0.001366612855417266 -0.001014142103497527 
0.004436009993814681 0.004818809855662474 -0.04041593149452111 -0.01186482258251986 0.02184862043283225 0.005476621550116746 
-0.01459101810787586 0.03249907002278112 -0.03992555707716253 -0.01715798562520354 0.01759544636378921 0.01661656340898107 
-0.02536102860670766 0.01878140612432317 0.006058885237685239 -0.01047190469636562 -0.008340496010524577 0.01274104191595634 
-0.0003543326300984254 -0.001828742909052561 -0.009353786619362179 0.01716775727294013 0.003287893570501434 -0.001538168603129971 
-0.01827785243277055 0.000189333799482662 -0.02907701359041712 0.03733712671279507 0.001116480336412171 -0.005416534516294062 
-0.0097553579606825 0.001244300021496388 -0.02483927003582175 0.02833209044747326 -0.001623722119447826 -0.01531878432568369 
0.01247016968629021 -0.01493160133006204 -0.01799707122850998 0.007009029666530341 0.002901241543528172 -0.02019186934464074 
-0.01476463750532728 -0.01055257982051661 -0.009243031091101509 0.02172327600457433 0.0005157003165946321 -0.009034405155282805 
0.01562379151994584 -0.008618601039755485 -0.01609678614103664 -0.002372526351070377 -0.008599416511399333 0.004034169222251928 
0.01089585131550792 -0.007190676907829787 -0.01972449408060489 -0.01276638669105173 0.005299841529950318 0.004882946736916275 
-0.0002667407072277838 -0.007877788484449089 0.01090511649841675 -0.009162936743344272 -0.009171696086618206 -0.0002965993213549494 
0.006730490041812291 -0.01015999646328608 0.006582908797841733 -0.02467653939820872 -0.009484384916209201 0.001090553889557228 
-0.01203722893955298 0.01621121575135713 -0.0005616679111889979 -0.01686336278670763 -0.01000678532232625 0.001383895653318211 
-0.004584626748922428 0.02256702828380946 -0.03362748509963404 0.008210565964427416 0.004930951910443855 -0.01270814658458509 
-0.01413598950528861 0.04788910109071472 -0.0103703948660502 -0.01593515421024274 -0.01008796169661966 -0.01356531435307108 
-0.01191418197042267 0.029885429321161 -0.01087883587894775 0.00111823173895648 -0.02128276766542284 0.01362177373747479 
0.02588542385121052 0.002380538683562477 -0.0484087211168626 -0.01037727233334212 0.02263963352284339 0.01524573271952626 
-0.003733666274676153 0.009413102816602851 -0.02581454547154776 -0.01156354433981935 0.01308362558974668 0.01380769948959016 
-0.02954648331484052 0.001698815131240581 0.001699354637693455 -0.006302836529673212 -0.008685766808068191 0.02452894358860635 
-0.014263785159776 -0.0193081172718631 0.0004394869477214597 -0.003016493211445624 -0.005241001307966973 0.02251686999486301 
-0.005250533924429914 -0.008026431404675115 -0.01447366045345289 0.01198610629762422 -0.01846206558883729 0.002306826556574784 
-0.009207687206511803 -0.002574780562463357 -0.0462143104670293 0.05967637841500655 -0.02144763841674055 -0.002055644308974204 
-0.02788501703417653 -0.006496426401660096 -0.007973312600965949 0.02090053863873211 -0.00829732306777216 0.005944320955911503 
-0.01066925110706139 0.02204162935559565 -0.02016855971775915 0.02051759495143669 -0.006969189194476422 -0.01047496979859235 
0.03542709376532418 -0.004374025389359305 -0.01633449686046758 -0.009307827800720788 0.005308078562534937 -0.0164243083198359 
0.01002057507076698 -0.005601827229243174 -0.0139260478502695 -0.01024431984206512 0.01834797060130256 -0.009981808952788379 
-0.04036169527749961 0.002108733869942704 -0.001059446513170734 -0.01444241639781587 0.03502040684977275 -0.001379259050650686 
-0.02890504634984912 -0.017146075387191 0.03129380328361873 -0.03265263104684529 0.008018861492346173 -0.002583670426166491 
-0.01927958689808154 -0.0006490818590315449 -0.01484063546541443 0.001784104075050035 0.02271076689496468 -0.009522033178508475 
-0.0006884353454440815 0.00451486715516203 -0.0242081100615354 0.00720840545676248 0.01252436738888154 -0.0179284017537638 
-0.02758272981193498 0.008461929386942887 0.02636814280069647 -0.03727031314093972 0.0008959132190090937 -0.004581701491178753 
-0.05021783445452112 0.02013551281767408 -0.005616699334085546 -0.00879017519609673 0.03836207159713194 0.00178535385380004 
0.003818112683883357 0.01166433435458729 -0.02572252695143333 -0.0087986540826673 0.03200387232743169 -0.02306293249165281 
0.01800073527931745 -0.01636132162803229 -0.004473364433876754 -0.005862839527251197 -0.002409942318472933 -0.004601164483338988 
-0.02407326478948564 0.00893732857043446 -0.006169697538543318 -0.007793506800116848 -0.007346674578241472 0.01169250551446979 
-0.01284914629992153 -0.001690484014429635 -0.01399024193168557 0.01394011869258625 -0.01106819641462812 0.004455974450990781 
-0.008881274614369676 -0.02041217414304429 -0.04902156439080244 0.05769577951389334 -0.007207868751620963 0.002120836322637557 
-0.0001316898349914241 -0.006492003532574315 -0.03593279209750674 0.0283825152963271 -0.01258037430187407 0.01208505865942442 
-0.0180347609252162 -0.009063295733150624 0.01086970557911077 -0.02401789770315353 -0.01628404045824057 0.024066711247121 
-0.02871966687776858 -0.006340003749847166 0.01743862128377353 -0.01201554922051079 -0.01975238419976856 0.02629002033776577 
0.02163519135960958 -0.005212002594669747 -0.009257532963372771 -0.01006628809652188 -0.02563260750774154 0.01342961785916712 
0.008932008923892919 0.01068929995826709 -0.03570380405691724 -0.01137989893883223 0.01120407634735821 0.01342944146457676 
-0.04130065363648121 0.02963719233456524 -0.01620977190303317 0.003300807003990965 0.01288890080218245 0.01169810503749143 
-0.02189977147412524 0.04034091936356799 -0.005736623740667766 -0.01223282163091214 -0.006487649305604259 -0.005155385657783691 
-0.0003332596568686658 0.02636495131870086 -0.01907114076012634 -0.0004126164964416125 -0.004051480301434604 -0.0192087318687907 
-0.0123107031002168 0.009912971330068883 -0.01786217505619507 0.007809909162971786 0.007191666285848695 -0.01350693311414628 
-0.02870572817836016 -0.005905976663914438 0.0128266137363166 -0.02874841201937927 0.003788174037619814 0.0105228112071 
-0.01131155109232877 -0.01395749162286931 0.01319159632493225 -0.02366369821076963 0.02144783059836953 -0.003607675742350335 
0.01750820384223427 -0.007949729228173028 -0.01253657845412766 -0.01144713259819693 0.01632936140804216 -0.009307611364589255 
0.03554401640269466 -0.01160419354840238 -0.01445460150651568 -0.01032501960430677 -0.005502616253212625 -0.007222966868215859 
-0.01584506089223856 -0.00194384732747294 -0.002302395731220978 0.006361065228335098 -0.004500649464234424 -0.0006519278152910236 
-0.02146974117889006 -0.002947593528620912 -0.02178587725226445 0.01607629590099995 -0.004850241241916851 0.001058820796893186 
-0.0115293787866723 -0.001632096321238828 -0.02984520810365382 0.03636004562574162 -0.01880991536886915 -0.000663697424113435 
-0.01005336202919837 -0.01180761682239267 -0.0344070361467757 0.03685687597878361 -0.01260998331050491 0.002457809397418978 
-0.02776436170527849 -0.001927481354518094 0.006626688478678039 -0.004932326204885129 -0.01089626417677458 0.01712273431050629 
-0.01976637154941825 0.003801362595490349 0.01167139184312787 -0.01071845931898861 -0.01057229767394415 0.01169612335028453 
-0.02404977976364051 0.03411847314731643 -0.03225262408800769 -0.02059454456603157 0.00872308423527513 0.03210095191398542 
0.005194590794718588 0.0192952972115197 -0.03413863356363986 -0.01942280810469537 0.01890855123628993 -0.003919687091900469 
0.001419740396711082 0.01559410778267482 -0.027523780385755 0.00823995153646994 0.009454288173357922 -0.003631927593600262 
0.00904737844337648 0.009165387297918048 -0.02504027235735117 0.01425940948184524 -0.005281837646829669 -0.003435948980812327 
-0.00907788222786381 0.006130518755895393 0.003282733736813143 -0.009020798719439685 -0.004463312327451002 -0.009822318547816419 
-0.01071899624143519 -0.006869532864560563 -0.02779496541154765 0.03250969934927087 -0.009545067544411897 0.003897178157588628 
-0.01369579426851917 -0.01651537290320501 -0.001164755815976763 0.005909124114056273 -0.0006167687827904409 0.009929203472587998 
-0.01883634447635136 0.008396967166337477 -0.005688355451490933 -0.013769248565932 0.00579832219812269 0.008381283579438487 
0.001541075243081187 0.03063139550811855 -0.01438358419501743 -0.01356632484780893 -0.004917590911257856 -0.01062966578002958 
0.03231518691129957 0.02036664430475866 -0.01919841116949996 -0.02194407260458645 -0.02905274411883558 -0.01141621517839228 
-0.009420043748913779 0.006743395573401993 -0.004149002484236867 -0.01373908057611025 -0.002868631769930549 0.002898065406155521 
-0.01208180678275089 -0.009043756216553215 -0.007428607269669133 -0.0004984397616393051 0.008536911157074953 0.0002366615460816485 
-0.01937200335291804 0.01142228661872122 -0.0129240998689584 0.01755308633790571 0.001514150112667027 -0.00780238120430055 
-0.01792431876927384 -0.0141702755333277 -0.01924773491087039 0.03722873311155809 -0.0002609087376543189 -0.00214181097205721 
-0.01479713772074204 -0.01019586525072648 -0.004102510322317807 0.01928175824047314 0.01404480999416954 -0.01124163694840872 
0.007938690504360238 0.00528706957073344 -0.002442409567815967 -0.00203285439456906 -0.004821709274745062 -0.008731316499672757 
-0.01353946657555491 0.01308182449759006 -0.01987492612808031 -0.01625873025509754 0.003194189808323746 0.004034968992840214 
0.002583952489032198 -0.002194613689690702 -0.01632558745938274 -0.006477737831695731 -0.001977112832966299 0.01671827512997812 
0.01407859491676328 -0.005052437186811642 0.001232282606677752 -0.002189898563671762 -0.008043713395156898 -0.001545712215605572 
0.007535676804610013 -0.001239205273297578 0.00859715601949896 -0.01574904329683677 -0.008631293063283391 -0.004283074468127113 
-0.01900554049229338 0.009694043796688284 0.007898936201522967 -0.01947501829376707 -0.002780875937042356 0.005482428380867827 
-0.01557300666659923 0.004199892445961945 -0.01225594184792562 0.02388864326689006 -0.01949114029197674 -0.0004408160292053644 
-0.001176310408859448 -0.01848780664667047 -0.02118951409953227 0.02386160787122873 0.0005205616434048818 0.01001068145519845 
0.0001017125441806194 0.002825663881325815 -0.004059545325708785 -0.004823087175301105 -0.01348445829396898 0.008970455942652122 
-0.01473630183371599 0.02784223290864173 -0.00345784857179889 -0.01764028575155922 -0.0220512820547784 -0.0006169633264808237 
0.03004919933661226 -0.01137066252643587 -0.01293713372643555 -0.01123420224758931 -0.03054737149426331 0.008497231105869751 
0.02359343984430276 -0.009113000915708809 -0.01084570082555761 -0.006174788331998952 -0.009134577513657741 0.003566245418879902 
-0.006742562206435269 0.003802736945172808 -0.0172258559669386 0.00384759645656382 -0.003060090265966312 0.003272586662102018 
-0.0182909696559491 0.01144965598796866 -0.002135015147765407 -0.003146897075637782 -0.001279599548547766 -0.00425192737748903 
-0.0008067774502338329 -0.01258789910608076 0.001543339241814933 0.01121780487475948 0.006290640623207358 -0.009970209036898665 
-0.003984740161547928 0.01064472882947821 -0.01061035316637977 0.01416604731490824 0.005035139062517237 -0.005911211315360232 
0.02036464039872746 0.007142374791708505 -0.0002687159687538298 0.0004327686261119495 -0.01447430828115047 -0.011739853769015 
0.01224781520062511 0.005513817313887031 -0.01525912357170544 -0.01041592231248596 -0.002565216712322647 -0.01412201203247761 
-0.02741938321019513 0.03141661131792852 -0.0202865423027113 -0.002895583234392468 -0.009463711869264162 0.01126073976848286 
-0.005154084355626952 0.02295974035155543 -0.003683635140165883 -0.01171095417406662 0.001825948467646564 0.002754057558014885 
0.001742914446847226 0.003486484295835538 -0.01301239678712952 0.01172554550361427 -0.002367189084842683 0.007336202115736846 
0.002866618714600045 0.02031245791353238 0.003324584973242849 -0.01196799050113692 -0.009685896720844219 -0.005821788031964314 
0.001614623975488778 0.01521929599084803 -0.02659764161277891 0.03948595455416654 -0.01929164842572136 -0.003082311983000918 
0.02584804812262949 0.0003577149339931414 -0.005806021636138259 0.007738348951699409 -0.009077194386486799 -0.002590759971486123 
-0.006007723425590097 -0.003183131418551524 0.01692965223823892 0.003348135452900434 -0.01336528039069098 0.003101839801652854 
0.006375416923157589 0.01155825614060749 -0.01688813656038073 -0.00764347743059357 -0.003071540160396757 0.001091440452604818 
-0.02180379525362573 0.02145990231210904 -0.01866927226501032 -0.0153224999082303 -0.002950238312593505 -0.01144572905845219 
0.01536774715279691 -0.007947955386009337 0.005221459394359459 -0.003615607963813162 -0.001865384822471572 -0.005504707477410305 
-0.01207270221156337 -0.0002839710410099723 0.007965752597054485 0.0004635552412655133 0.005077455900016741 0.002293438766777962 
-0.01675529353089742 -0.009368397358326223 0.01169362958518206 0.006468152994918268 -0.008103362662317962 0.005600070853707659 
0.002965307548404832 -0.04029725347402521 0.04192966945660223 -0.01614038200856852 -0.0122164463094872 -0.01467495716352954 
-0.01017017200913827 -0.002356146551180012 -0.008524273824449124 0.006377488173733853 -0.005255849367545397 0.01429838355973852 
-0.00123145934637112 0.01600555695378049 -0.01281109417705361 -0.01116588062388553 0.03296422184137178 -0.007332552480135675 
0.01653794620677455 -0.0156453939788672 -0.0004970751226563597 -0.02347997437578152 -0.03481741432702199 0.02854168725631948 
-0.009795619104683637 -0.0005964628320692825 0.000980684793460427 -0.01830575340759575 0.002195147255280303 0.003477665800699685 
-0.01883074910830101 0.01399837792803542 -0.001151783216606846 -0.003628673708546082 -0.0113402275326835 0.01382686367780286 
-0.01283771960945299 0.004725119455757897 -0.01480918479409658 0.02218904548714509 -0.004828756005045252 0.0007300755146693683 
0.02224295508424138 -0.01490525011974594 -0.01972363477240693 0.01796668425578623 -0.006228168484552032 -0.02428059226780502 
0.01971097676709073 0.001664710403864415 -0.008906806920190646 -0.003336338769613963 -0.01434653061541247 -0.01828212496784103 
0.007812157252391462 -0.0008022865835880942 -0.01010079541884677 0.02654541910290639 -0.01037367561615015 -0.005885319996396691 
0.009300323646138652 0.001717135738881835 -0.006484709446427389 -0.0001341519293466967 -0.01487237144097574 0.008901804317207964 
0.00431500614867606 0.006025534169153779 -0.014421947513151 -0.01591591105179116 -0.02070342471979691 0.0150321278516909 
0.02164987092386463 0.003058277917210371 -0.009756173392196452 -0.02285491010096346 -0.02008067061530466 -0.003652327184626476 
-0.0004888083028147495 0.0210595896399479 -0.01113309944849469 -0.01577807851714843 -0.01198229822663191 0.01209617802777903 
-0.001906111665976559 -0.008698350200913897 0.003358325949844347 -0.005990569492488215 -0.001627777317446806 0.00334349957375427 
-0.01734810774193722 -0.003266860595956002 -0.002274787021202418 0.0119486910467216 -0.009957043157571899 0.0072353219002579 
-0.01968978152882774 -0.009964384737416581 -0.01523940504745383 0.0280991037834776 -0.01168734611809302 0.009117741192075061 
-0.01532924979048809 -0.01514801590651637 -0.003265837077872328 -0.003208898194297537 -0.005485576740682844 0.004545539211961845 
0.0114089867371227 -0.01272115914889132 0.002870011922092801 -0.01095926875819078 0.001005859003087437 -0.007698533466294131 
0.05114218252001429 -0.001383743854599246 -0.006694451663552385 -0.02678521319803841 -0.02946848661748044 -0.01154508155764266 
-0.001524362807110387 0.04434396727287182 -0.01608917468845566 -0.02551628439750341 -0.01162016706479905 -0.00914937625736423 
0.007685307533947106 0.026131022512215 -0.01120451956290322 -0.0244862336128099 -0.006508407300184902 0.003743681351376088 
-0.005807085282027354 0.0009110549483851929 -0.001713660807104074 0.007131139501555726 -0.005748050274822993 0.005334224745224527 
-0.00264342512989326 -0.004885517387278626 -0.02339178366193472 0.03038796331805761 -0.01577063981524133 -0.01403802094817536 
0.01802269775849359 0.007818123465450123 -0.01625485248608299 -0.00605528996850369 -0.01209650464828316 -0.00961984190764691 
-0.009460588204167585 -0.001513970531039262 0.009239905740221316 0.00999415067530865 -0.009390163760854983 -0.00155126576296884 
-0.0175240149057321 0.005991175657677264 0.01037985326500163 0.0008556223272117554 -0.005931148273369412 0.008356045501612747 
-0.01880808362041475 0.007972155339758641 -0.02195801716061536 -0.02132304235910157 0.01386385034613442 0.02292033620256757 
0.0197506556556604 0.02991942973029533 -0.02354930282717582 -0.0407436319132161 -0.02302870797236127 0.01639893656866243 
0.001352760480126726 0.01879463906088565 -0.006784666165693626 -0.01154443026224761 -0.003118760156335857 -0.002821990697430251 
-0.00216888640332867 -0.005132175395173767 -0.01993585760023474 0.01949379409957606 -0.001632777039810602 0.002480957310060854 
-0.01006734193949031 -0.005722395446514521 -0.01196533104773911 0.01581377262842802 -0.01174110239024693 0.002405634950483352 
-0.01114433091267734 -0.03301817303554965 -0.01029044829275181 0.03682526506817978 -0.009809104717668436 0.002727355763379239 
0.002448236128259826 -0.02844228177676996 0.005955143353499505 -6.620853155658044e-05 -0.007549678816647185 -0.004898398817701874 
0.008206047086733939 -0.004995372153495879 -0.01159379230388391 0.0001617136903746835 -0.005669428145131905 -0.003577485778768952 
0.01743924496229956 -0.02099737368753774 -0.01139660157335147 -0.02921174920553198 0.007863667152348807 -0.006468516765515249 
0.008883710362373625 -0.003250408949566522 -0.01004301110022582 -0.02853691972062315 0.02261040870437854 -0.02472385959651966 
-0.002319412395243789 0.02861657580023451 -0.0087961759834384 -0.01836672678115745 -0.002153579304880893 -0.006095330132092024 
-0.005638911390443113 0.01181121995729458 -0.01930643025513169 0.004179755452310574 -0.0006780823114424701 0.007072235289078748 
-0.004728220433621187 -0.005768302407904943 -0.03450866860538398 0.03576160422459278 -0.00918087215863712 0.00226342213596485 
-0.003789179905386784 0.01316339596180799 -0.02324046523687928 0.01799232544921083 -0.01347974407406141 -0.009756909296949645 
0.01385737424326739 -0.007840476813850595 0.009104873392507195 -0.005133748618057853 -0.01876067032118758 -0.005480858761237314 
0.01586144728218247 0.001680277071020029 -0.003388664499027112 -0.0004036851287107394 -0.01695216372358299 0.0005479818356260991 
0.01858611764616951 -0.009706811992185744 -0.03044489818207969 -0.01464896352704815 0.01866524088012219 0.003282202316451214 
-0.01736236393576593 0.01037490084558871 -0.03328016758658917 -0.02688940215441045 0.01763641497335708 0.02503531476492497 
-0.02127997818650954 0.01271741258474741 0.009303871297931776 -0.01560920350188266 0.01674072068910659 -0.004437109867233485 
-0.02241715560730758 0.01981222645087037 -0.006753399665190114 0.0008233530811228401 -0.005925505034089036 0.00471290096271219 
-0.02430387032335709 0.009927816240140082 -0.03444872830407859 0.02979636459993746 -0.0009971762507768064 0.007640352636690577 
-0.01444131657002585 -0.01087011939152968 -0.03083027866919413 0.05143730211359611 -0.003520295124044783 -0.005619601548188717 
0.001100650483854296 -0.01160124212956602 0.003969024566601725 0.005552645762242654 -0.0004564349971694764 -0.01275186323143502 
0.0002074383071218671 -0.01834458414497946 0.01094418860043429 0.001069238873391358 0.004070940461880105 -0.004209603481893327 
0.01806878647708687 -0.01907012179738648 -0.007595082203193707 -0.01219072340431218 0.01774119314726456 -0.002221474562231964 
0.01260941127117883 -0.01319460905169264 -0.01677125536720063 -0.01905762373132341 0.03038436322639186 -0.00241140168130342 
-0.0147747253115593 0.03457199942311668 -0.005401727919049571 -0.02388807136254681 0.008462238838477708 -0.01049147419381807 
-0.01978214810258987 0.04669416979871493 -0.001162629181672991 -0.02219669274172226 -0.005953764739537156 -0.009932255602915642 
-0.03361739058613347 0.02609310591678999 -0.02902861839080906 0.0354776890858295 -0.01618437154714048 -0.002637408398207283 
-0.01461140641112065 0.03967093226344677 -0.04395447870852894 0.04067882817648371 -0.01376762517352608 -0.01531487678723991 
-0.01688519416864985 0.02354925894337829 0.009636028617285868 -0.02506156683499267 -0.01066701007431927 -0.007341855485192799 
0.002660680393691734 0.01739842805634447 0.002358829665276894 -0.02332409998952184 0.000794726216652788 -0.01072546134139846 
0.02543349346626659 -0.01673163900243613 -0.005323650913046073 -0.02496088945277841 0.01959355539137168 -0.01425160869388809 
-0.01715438853176282 -0.03328973052679996 -0.01570299049049014 -0.01202268866901298 0.02574067107799265 0.01601304520346982 
-0.009484830599864418 -0.002475641116088061 0.00102975838362483 -0.0001436725847711168 0.02207893948675003 -0.004587439028745187 
-0.02366230077000861 -0.002680780283297993 -0.006446323740712867 0.03251975843502736 0.002402983116969996 -0.003410256166689704 
-0.02016288091990087 0.008137491972028756 -0.02434648274574483 0.02932417354332064 -0.009323643561609763 0.004207618218361933 
-0.0124465560550445 0.02054283097417298 -0.04113162841983592 0.03080393366286825 0.002284655077902065 -0.006858807834828985 
-0.02378614312300321 0.02218505175413933 -0.001662181690219384 0.002535628942688877 0.004529347706260557 -0.01160502136982406 
-0.0112006461534308 0.01670581245807806 0.008218953736662316 -0.01202899751192598 0.00967714228485618 -0.007998441317913624 
-0.01509957756491403 -0.002789305756974514 -0.01840560010899346 -0.02208357432720146 0.01171064455629856 0.01141995073962474 
0.02054130463810409 -0.01967687563930862 -0.01973761955065314 -0.01184430145739519 0.0004524765402699013 0.02012843787281686 
0.01561357325349307 -0.004643839821086607 0.003306745802548178 -0.009691966346704007 -0.01733986456052632 0.003608837124082484 
0.003603035566355063 -0.01059069463156032 0.01424806183346907 -0.02052318850646137 -0.009737072295152967 -0.0008214422636829359 
0.0009786312737204218 0.02623312263874766 -0.0380595332793828 0.0199597577010007 -0.0125231801806818 -0.01119956631528037 
-0.007977855448287536 -0.001372497386106257 -0.03713932821551218 0.03723049444453532 -0.01334127698702022 -0.003745984705823084 
-0.01368766767557347 0.001896084811711569 -0.007723233112390085 0.0001657713470014239 -0.008273897732114016 0.007787323415099031 
-0.0100950116750518 0.01854895730249555 0.002269162756953035 -0.02229510805998975 -0.01034786839431057 0.002500499935615773 
0.01650402888308103 -0.002282255666925641 -0.0102128383071004 -0.01724640629191916 0.01340147522462422 -0.01730946917803013 
0.03534223027926513 -0.03635155198958677 -0.007340780589306218 -0.02515420504799483 0.01546107402835246 -0.0150155204088032 
0.005726426073773602 -0.006015261494549146 -0.002950554155145734 -0.000933618958763967 0.0003530097720968825 -0.01306325229575524 
-0.01169143638534948 -0.00708922302566962 -0.004973681814587415 0.002397437927672433 0.005956780960728904 -0.006069610292856817 
-0.01733889026094994 -0.02681521921859701 -0.005077956198756168 0.0285659409850352 -0.001738052585436824 0.0004214475875749748 
0.002450925713797865 -0.006526105872900398 -0.02485002757764167 0.02165150958803391 0.003241592018615297 -0.005370936746053121 
-0.005379879272366593 0.003578654706382917 -0.006807946579640729 0.003270140104048669 -0.001913113237831593 -0.000428953222132583 
0.0003440004062672805 0.009682266698260583 -0.00957085002814665 -0.006238385737992388 0.01849728606147639 -0.003138022847703889 
-0.008942220618925863 0.04586157049458152 -0.03470133221795765 -0.03180900132825375 -0.003452649894422039 0.01685958373133169 
-0.003147874800825034 -2.609992877600867e-05 -0.02219806549578948 -0.01812419086093971 0.03126464249923008 -0.004247860906910174 
-0.005098555505056969 0.01459721295297172 -0.002719333766022508 0.008116201155723307 -0.01271783557645603 0.001178095196815441 
0.002468716491672321 0.004352475156004597 0.000994614677273028 0.009586374610091849 -0.0167123508128435 -0.003703201030713728 
0.02317453077582809 0.01593914258846123 -0.002245310721617928 -0.01454786553150466 -0.01232015972705868 -0.01935444744331504 
0.01333250946102857 -0.008321459239684014 -0.02907617994350559 0.02430873334568679 -0.02457174604184008 -0.01233747551732815 
0.006707960420308011 -0.008006006627419611 -0.007752854243110546 0.01102922950137988 -0.01498161635729177 0.001565357680706979 
0.003535110128440409 0.02393839231681881 -0.007958389449438752 -0.01697407096428425 -0.00243677179625307 -0.006507706767052693 
-0.002100460041967925 0.02458449553209685 -0.006603320277532245 -0.02263739536674607 0.001187495504259391 -0.01024987313718477 
0.047690466162253 0.004492152853056043 -0.01578860026490283 -0.04006009761647084 -0.0182095262744554 -0.01310925606140014 
0.015696215909743 -0.001784754600457693 0.009620744464742573 -0.0278933895095406 -0.006116749888723028 -0.007508356228383571 
-0.004920644724100524 -0.01429933767197406 -0.0138203693575857 0.01567624957014949 -0.001829247148675373 -0.004450326298030941 
-0.005716927114563552 -0.01329134729356186 -0.0144248013412821 0.02327114087189491 -0.01109489538095499 -0.0024287094658418 
0.0004018227260231144 -0.009587042355201313 -0.01342614437632541 0.01681713740793629 -0.0079725438530943 0.0008055966105885435 
0.001292991385961876 -0.001119492436182903 0.0001840745989816751 -0.005139985344433839 -0.0009893978765537861 -0.003878052971912909 
-0.0133991055614685 0.01227901475866248 0.001877240761854763 -0.00625680383758996 -0.008925593308145163 0.007756593719719632 
0.0003890212312030887 0.009449966114872558 -0.01414583504663648 -0.02163597581364228 -0.01199479012944519 0.01126768694270986 
-0.0173764110636628 0.009397290155032476 -0.00820538545689142 -0.02044581022356151 0.004091256543510988 -0.0008494515087246796 
-0.01305660465082853 0.003285827728399021 -0.004141547737557355 0.0002712633463714273 0.0008999895287380433 0.00388307953402792 
-0.005596766385092888 -0.007377240494503983 0.01287873319023708 -0.0001098079785609304 -0.01482020788711669 0.008198030804672669 
0.01407255489105347 0.01119295491657722 -0.006561676232933178 -0.009033016352954986 -0.0172865508468831 -0.00740817317034638 
-0.002865881729569821 0.02398044021487606 -0.01894214104168309 0.0204719407815843 -0.0127671254443311 -0.02064594317014689 
0.005173761714874586 0.009425707458613361 -0.007447077134734922 0.01108910310627225 -0.008720668935362823 -0.0009649011748148324 
-0.00507599751204069 0.008235568608462597 -0.006739453169914227 -0.004994867432769781 -0.0158575447362597 0.01495263286546067 
-0.02233560168385889 0.03235834452371402 -0.01716540869616327 -0.009948428339938755 -0.006946427853344703 0.007420797185740753 
0.04275266386558461 -0.03183973533261426 -0.01018125407248239 -0.02501505434892589 -0.03299823270441474 0.02391464006602599 
0.01937861098164732 0.006893099437984948 -0.005177207699758485 -0.00648326567670548 -0.01795712205358666 0.0009743736917470672 
-0.008296556591617425 -0.002025806905833518 -0.00328255073849375 0.008373053114142194 -0.009754940642928523 0.004353497012460189 
-0.01210232082223743 0.001194147488878019 -0.002158770493362688 0.006399636427007629 -0.009230945890800927 -0.001351414297516346 
0.01497507272604757 -0.01224738779330815 0.01190298840718907 -0.002212874450726664 -0.009394576524772167 -0.009083951731163085 
0.02053437072606407 -0.003306484345388855 -0.005008972052063909 0.003923219131743178 -0.007857094843539638 -0.006222042574859545 
-0.00488783724842643 0.006205478704646918 -0.01249843384107444 -0.003691483332410548 0.00856786318804818 -0.005053763650791164 
0.02109780091498552 0.01302195923147263 -0.01677501465392368 -0.01400553855443727 -0.01258376350750953 -0.0156153343033751 
0.0121056609417502 0.01560791918501233 -0.0207931789532419 -0.004390752704738684 -0.01642537803736199 0.005222012679257688 
-0.01982082802122563 0.01647356163317545 -0.003038414172525742 -0.01587867646345464 0.01151367569409156 0.0151163987387575 
-0.003274654357254005 0.002774853796546549 0.008947224971480596 -0.008229496596107527 -0.004235479571691101 0.007493472388986723 
0.01262422011074229 0.006924452244557852 -0.004893721207913206 -0.006270035149039171 -0.01229622821515395 -0.01254152018584291 
0.01498221595867056 0.004258048242577848 0.01041196817073068 0.007301000455773719 -0.03549817152819602 -0.009660053601133697 
0.003373032970439202 0.01305044326057309 -0.006090432226716863 0.01536499702749074 -0.007291561823491939 -0.007504158066040291 
0.00393675356930019 0.001042011784396444 -0.004383401204386865 -0.003998472696838839 0.004055573087629827 0.004972959194850032 
-0.01277804468859397 -0.008460855559848017 0.009358142829585539 -0.004075323222781794 0.01248469528657986 -0.01109665887535958 
0.0007370170791360626 0.02964185498811354 -0.01728344604499102 -0.005342148544089848 -0.006383022907432203 -0.02314128386035527 
-0.0009747720257298945 -0.01173729841731593 0.01008246058639771 -0.003043790005520027 0.001926032494578906 -0.001556700460530048 
0.01732986116484576 0.007100711022433364 0.004688767305631776 -0.004277925532564791 -0.008051691027877627 -0.005911278373030592 
-0.0004244813748256162 -0.005805058037926914 -0.00254212657958819 -0.002614808739721472 -0.005970356285466995 0.0122265331078048 
0.03262876462094509 -0.003333874388658025 -5.587880195895441e-05 0.004968001791997298 -0.006894625807734823 -0.01843556061511615 
-0.01244501755483309 -0.01206600897239005 -0.01059117841054866 0.01335239818820797 0.02381327642743937 -8.698871794034297e-05 
-0.02832780388200136 -0.004810370988364945 -0.004771531418643991 0.003233561861307867 -0.0009233365700910853 0.02011713664382578 
-0.01073557566969322 0.01559330987603455 -0.009919893007813757 -0.0195640168529626 -0.0006521830539938734 0.02137182237365291 
0.01126968128595148 -0.01019653395908126 0.008305267725637448 -0.02269607208983759 -0.02930693150573885 0.01950877936242914 
0.00812737496550203 0.0005271408387164301 0.009714368407714936 -0.02039652077168689 -0.01018903573830672 -0.003591622766497653 
-0.003955747401874298 0.01474195898059169 -0.004230565006843497 -0.005025113126965903 0.002107036031203189 -0.005851786431108888 
-0.01125296906390504 0.005207023657118674 -0.003836831969335732 0.004796492910246976 -0.009160534766066007 -0.01030139297880907 
0.005082495585218884 -0.01851913490218236 0.002900782243470115 0.003263717215080887 -0.01336649763739668 -0.00531965637455983 
0.004367440194089815 -0.01455682095185677 0.009339722977753873 0.01183543313296776 -0.01970872031002254 0.001585564987594048 
0.003571457334824225 0.007615106360445014 0.005997335250735573 -0.0124188115547921 -0.02405728025081088 0.004860059742559007 
-0.01606573886776326 0.002402746317317541 -0.013368438244058 -0.01276800788821203 -0.002353230168103451 0.01482775767056168 
0.01422940350277963 0.01044253271128548 -0.008774114201608117 -0.01771642025050391 -0.02933647694892176 -0.00235906737428933 
0.02071835333220414 0.0287613055169926 -0.00714391636247228 -0.02965534040628937 -0.0191442560132997 0.0005446039456156658 
0.03017589781031601 -0.007730220817721623 0.003536165984686342 -0.01463774320891241 -0.01009125612547462 -0.002965363071914276 
0.02313522172132819 -0.01369104442117294 0.01256634676828138 -0.01508528802186246 -0.0005151449079366275 -0.01322826304418817 
0.002705104260589527 -0.01229594561438038 0.002132937250981915 -0.007108416078119742 0.001574165822596724 -0.01210041055058892 
0.001695649721858583 -0.02310673136266322 0.007479709213088749 0.005534955981293149 -0.01066198646685524 -0.002468218047768572 
0.01317685528836703 -0.03722158498894659 0.01848868046743644 -0.0003366959244483028 -0.02877225992876407 0.00918427572800122 
-0.0005980506015799176 0.002864222997229673 0.00278928222529436 -0.01544726022907009 -0.02942785898563035 0.004274639187548233 
-0.01171979991305912 0.02928795116017073 -0.008200532733525754 -0.007962861291962267 -0.01258675061777814 0.003229562446101075 
0.02077956091580252 0.04963706481330417 -0.008314153579270256 -0.03380427613468967 -0.01248378217378274 -0.006959497009950636 
0.03120088099693452 -0.007044794999719556 0.003354774218460948 -0.005080428473181957 -0.01466059142653002 -0.009367220325267701 
0.01568636849085658 -0.02401788865911229 -0.001762235154981238 0.01935609192823119 -0.01537723094519629 -0.01020411514509486 
0.01860922948560053 -0.02403103162226782 -0.00995898968101851 0.03268133603245651 -0.01489445325118455 -0.0148961311560618 
-0.00271404992943167 -0.01360245045691107 0.02718435395347363 -0.007459035300257909 -0.005899093759758768 -0.01059412876168819 
0.001363826385980392 0.003261769881201753 0.005456568150171361 -0.009704268795940916 -0.00269219480147516 0.004851042973231104 
-0.01756549190180099 0.003920669132721937 -0.02125555116305625 -0.0234727468189376 -0.01423423133433856 0.04870386014601651 
0.02215811548372412 0.01660410918977543 -0.01870245409615043 -0.01625991224902318 -0.01052095309497485 0.001389360744299561 
0.0183484437336717 0.01950736399902484 -0.01917497257991206 0.001279848886391707 -0.005956175033328191 -0.005582950306591782 
0.02080104479373618 -0.01036092053184429 -0.01209573029653533 0.01184247129743864 -0.0007988260763901654 -0.006511072282950894 
0.009211705738981354 -0.01324631816417315 -0.002448541762209426 0.008214271684296309 -0.005339778283487529 -0.0005469535082183582 
0.004219558129089166 -0.01804084355239276 -0.002682704886790882 0.01724899082845614 0.00212638785351442 -0.007478650703066234 
-0.01090429905166648 -0.00387255655485617 0.00507789131104036 0.003618361423972258 -0.01784522027200899 0.005784176292501742 
-0.005072873844785059 -0.01897154659082508 0.0002735069506024655 0.004975769205564966 -0.0008164646614826662 0.007095144076176447 
-0.01022480097180974 -0.01891300613913422 -0.01344696484682942 -0.01570389818240144 0.01736025883556933 0.01009178378485084 
-0.01544793793486647 0.009049837003236937 -0.00737330263646057 -0.01809115583472184 -0.001441033574878968 -0.001579409850775948 
0.01102763917583841 0.02128568645956049 -0.004622840391948916 -0.02339933764775057 0.005010352368845103 -0.01618647714613763 
0.01903754619497686 0.005396736242532158 -0.005432707840414943 -0.001553430553679837 -0.01305527082562871 -0.01336113784357696 
0.0128854054656035 -0.02841163244780309 -0.01987880051763641 0.0335414759425677 -0.005439388819928359 -0.01456252972807599 
0.0249786847850494 -0.03421128900246208 -0.04800439081728294 0.07729450922256394 -0.01278982269872881 -0.02621852924712536 
0.0275421232856077 -0.02606510846625333 0.006255072816699973 -0.008640657441954896 -0.009081107229983067 -0.01731772960672401 
0.01444557479842879 -0.01126914251987832 0.003324439423704105 -0.009514883865009831 0.005823927235847911 -0.008961406650459643 
-0.0001460228333823366 -0.01148215413652377 -0.01560425068733447 -0.01614916437325392 0.01076328813651119 0.0167773017510033 
-0.02336480449476337 0.01006907149390904 -0.02155326585597416 -0.02029898274474294 0.00358706489614628 0.01984732858310966 
-0.01781102789859116 0.02683015082910153 -0.0002725984807141726 -0.01542395933766564 -0.001094810372042919 0.002199810827442023 
0.01200039247481983 0.01732202936865867 -0.02527704811319148 0.005626978391899714 -0.002517595912925923 -0.004623363936444504 
0.007095457843495258 0.01141100313264814 -0.01997078699900953 0.007139190576341056 -0.001706017347258779 -0.008333224434054338 
0.01267668605292139 -0.0005507891427587632 -0.02952661077547493 0.02390960851186904 -0.002619333480156317 -0.005187970214920846 
0.003849197521287785 -0.01084448796430159 0.02281196061872368 -0.01092044223128452 -0.006599029537598517 -0.003901287891757214 
-0.004172384247369658 0.001264368931686573 0.01404858716681143 -0.01778583705676604 0.01495096301152593 -0.007157060076408028 
-0.03260299166380697 -0.005329263013168398 -0.01380905723749831 -0.0147283827536024 0.04616529325162854 0.006866247101903327 
0.006406800757488502 -0.004511050882698615 -0.00654340144182817 -0.02374606887549015 0.007235050738299164 0.01304503752502157 
0.01900002848047604 0.008038274581346979 0.004516878489298969 -0.02080848368907108 -0.009250362707912513 -0.007878953693168104 
0.03347144279052667 -0.0006907160991559568 -0.006305503389480682 -0.01662221024817991 -0.007596728705843013 -0.009932094982426165 
0.02773222854212974 -0.01950828666558325 -0.04208453289080027 0.04545965998602146 -0.00339168117602014 -0.02817735740669805 
0.02802215202499955 -0.0246213354379596 -0.04446097215747943 0.05556733824644552 -0.00718762017009028 -0.03111078937895624 
0.009323423531474017 0.006432371891141189 -0.007677294257355274 -0.001500560417431064 -0.001277961908126438 0.0005506266870308439 
-0.003625420281697559 -0.001098755323896438 0.01215713744813272 -0.02377584306070711 0.0121472161670302 -0.01063878121252605 
0.01426152312688796 -0.02580188842566339 -0.006688192401936527 -0.02376952755894484 0.01846777614104732 0.002444343059004915 
-0.04181052366657014 -0.001362440596331368 -0.01938284496766365 -0.01924778321189439 0.03970398032587017 0.01371083730933284 
0.002794152356397401 0.005211826305533046 0.01999554901529644 -0.01943928582381941 0.005274125797021309 -0.01433687884799042 
0.01400474456403586 0.002356110713824084 -0.004452945907745483 0.002471705249437476 -0.007067133989381869 -0.005170373565689129 
0.02061932564063189 0.004225024923673278 -0.02516535910381015 0.01398336943883506 0.003846631719397667 -0.0198216929121578 
-0.001630954515216444 0.01968434501758341 -0.03332253130785847 0.01578762280562497 -0.0008118135679438711 -0.002195496669572665 
0.01738857874925659 0.01139021823087554 -0.01252014793632069 0.002040249960135828 -0.01495256562624095 -0.007039916994808897 
0.004663058682268896 0.009481956135464801 0.007671123766490123 -0.01882875252990057 -0.008314329107797624 0.001528165714262723 
-0.02372284768865196 0.004419685151231913 -0.02514248577982792 -0.01474347506152852 0.003853351348498513 0.02748748122357564 
-0.002664326994071752 -0.01406167599077522 -0.02686555165857006 -0.01566355081108053 0.02281683057178754 0.026975532093159 
0.02385601689777593 0.0009105151387633211 0.0006270234875973016 -0.01093561707547047 -0.00420409069523004 -0.01913023422943344 
0.02935666307817819 -0.01432017476656231 0.0007296114441176319 -0.004227142917426438 -0.004246266964696693 -0.01903287354227906 
0.02959599943266318 -0.03046841346307285 -0.03830957797208434 0.05230073075437788 -0.01142363761628435 -0.02605468704870018 
0.006533931252811286 -0.02721619485630998 -0.01722232200031257 0.02642629882458506 -0.003091579817175178 -0.01149045726316784 
0.000464038151996996 -0.002591531205096581 -0.01578299318808635 0.01590622195436942 -0.005570646153373877 0.0007925238743188135 
0.01124559227892905 0.01839852763153564 0.001261124884026153 -0.02467535694914064 -0.001593181913051864 -0.006572343608079333 
0.008594631628052836 -0.00174824450033747 -0.001264445978391038 -0.0201899752550132 0.006787179507902021 -0.009391399217059466 
-0.01264863183660959 -0.00486462654027812 -0.01468702096125849 -0.01284667074680591 0.02287382626915454 -0.001529698748732702 
-0.0132329668656611 0.008860338938348665 0.003115315824382665 -0.004502976337045404 -0.0013510272341451 0.003080600405369387 
-0.0115841825374874 -0.001008776053042515 0.002806968345693037 0.01593579356171334 -0.01054911808289067 0.004324544198258781 
0.007121825307596404 -0.0172686731174533 -0.006557486730714046 0.01583151565207885 -0.009031432072595252 -0.001485532796892209 
0.01651683686135745 -0.0032915252393761 -0.02072521587125089 0.01871747188044647 -0.005410563526426947 -0.01111077864427936 
0.001397615959629541 0.001409739655675197 -0.01759381920113254 0.02290248831154864 0.001923739607247516 -0.003281266533856685 
0.02033600557902965 0.02713775184918861 -0.01174968450863257 -0.012244258096679 0.004440114987468454 -0.01593723970007961 
-0.009955277447228919 0.01880933769352561 -0.0217874122962088 -0.01673507465472316 0.007135844090080745 0.0004441423166257502 
0.0005262611983122195 -0.005542208377316901 -0.02235611834102436 -0.02056499910630361 -0.01026574845641386 0.03558174702343322 
0.003613929435161863 0.001041184827444458 0.01460500893306865 -0.01249805374864709 -0.006771275115656892 -0.01418516249726503 
0.01606044941166756 -0.01738131352060778 0.0255536733124657 -0.01706059422868478 -0.01056341564714284 -0.01620145144764066 
0.02003171047724876 -0.02268680704121566 -0.00666503791222652 0.01664401732550994 -0.01129507494219177 -0.01448513550868274 
0.02028348124936295 -0.03718958358772575 -0.005675779749536628 0.02231312607433369 -0.004646875422011851 -0.01733104225790544 
0.01188558184057099 -0.01561928713406653 -0.002240519565859129 0.006607917599896612 -0.006111034630354829 -0.008167141975155523 
0.01609163997545489 0.02703804230627329 -0.009598946741646115 -0.01983773941132426 0.0005266917635792478 -0.0151357352256544 
-0.005039839833710412 0.03672203247890589 -0.008270177603307442 -0.01248861314950261 -0.0105453487100437 -0.002266637880923662 
0.003880419145724536 -0.007111745501587186 -0.01115619317651799 -0.01650889973320871 -0.02531901249867136 0.01671485529344566 
0.02222853530395787 -0.01633804938254304 0.006009330296918403 -0.01121063723036866 -0.00819711898636514 0.0008639167168201241 
-0.003688517271272534 -0.008115161222408074 -0.004729608142595727 0.01081589804356141 -0.0134395198180404 -0.0006803941540817581 
-0.004266424007936578 -0.0009000839491289795 0.001819736578258152 -0.01327022753442993 0.01350362705737788 -0.01735546521871374 
0.0230546674129309 -0.02300826329226455 -0.009254201824258462 -0.006832078272966119 0.009845547523664214 -0.001881617532193655 
0.01351847901856713 -0.01345930824989987 0.002149395111750572 -0.006083680268717415 -0.0007695602078928359 0.003532773144667791 
0.004611022331524763 0.0303237601144653 -0.003912423312166513 -0.030290826310171 -0.001372736746230667 -0.002438733846624117 
0.03525401345745992 0.01304383074443572 -0.004464491836897518 -0.02623516189212579 -0.01583599315577615 -0.01755931943818548 
-0.01488834583463363 0.01398802550826792 0.002124221194302569 -0.01673317046914565 -0.02480158330626341 0.007979622665514392 
-0.00257720082476866 0.009014606951619522 -0.006829464932299661 -0.002296663000755512 -0.01066485265086552 0.002435033438717773 
0.01240093566494156 -0.01383308468312501 0.01832168313395887 -0.002026467501200548 -0.01539867663173006 -0.01079853890708063 
0.01821242863144208 -0.01702393954347835 -0.007618408742123287 0.008682041457128595 -0.01460445721386468 -0.008817191956862548 
-0.006067022451590873 0.03804858585173337 0.01303326486500211 -0.01362312258365665 -0.01059834700978215 -0.02710648455873413 
0.01258468414077848 0.004954534965348782 -0.003273106501095898 0.002726478642633962 -0.005251630522957203 -0.01176814777785091 
0.008169016192438221 0.005071357077427422 -0.001830731549825406 -0.01648543500856239 0.001234569130713215 -0.01277927188924008 
0.02734813032971788 0.006672428146460513 -0.01245829989603827 -0.01141608006519458 -0.02550426520435869 0.003817281127618369 
0.002485224245829625 -0.005120583374822126 -0.006174914734215792 -0.01668197802514947 -0.0125479214651589 0.0106315362062496 
-0.002520661635605696 -0.01970710092014387 0.01246482992086054 -0.003944238157961611 -0.006440097323813472 0.0007501881474735574 
0.0009005673400691811 -0.01331887898770513 0.0003113723070771009 0.011591885103974 -0.01411010366362696 0.0002130852823749016 
-0.01034339939722802 -0.002098500541641315 -0.00503347174894803 -0.001451979365753419 0.005560852800826934 0.0007439364053161109 
0.02017993305417681 -0.02785294747013523 0.002352109569920296 -0.02103999500587873 -0.01031911999473393 0.018591939522053 
0.002078514629856274 -0.005425040766219779 0.003431107571853104 -0.005869770758172964 -0.00115444396682246 0.0119060749909363 
0.008062881875950625 -0.01074880623842506 -0.00284176299788293 -0.004157369219060221 0.003978428183238129 0.00369997650324035 
0.004810028514685057 0.003106177856074791 -0.01501055361578738 -0.01048492901892481 -0.003092111907378739 -0.002577295381401936 
-0.01730845131371767 -0.001235796135596639 -0.006416869649233284 -0.006843238977547955 0.0001078708440292338 0.007546128189641156 
-0.00933565054861169 -0.004087176333658682 0.00631158577736527 -0.01050638191833502 -0.004834992024929048 0.01118778560820183 
0.005190060068672377 0.002650049590582809 0.01622369917617643 -0.0005196817635456565 -0.01810139804515528 0.0001276110338572557 
0.00404958847160086 -0.01017852722679853 0.01359251309408824 -0.008461951201742261 -0.004091706809304377 -0.01741912095851908 
-0.02543051275995107 0.008814425041659104 -0.02019153949342124 0.01065740729113058 -0.002503261622562711 -0.002856832695050052 
-0.009509727879572119 -0.009106905854651019 0.01044796716305765 0.01825237678230828 -0.02411316300950271 0.01413724014123934 
0.0001266599329153264 -0.003795329268981094 0.003020278750014395 0.00900358266530101 -0.01281303458671756 0.01029599758893818 
-0.005837210257916186 -0.01953961728092792 0.008767223576298937 -0.008876996443450604 0.01364821985282796 0.01185812704121055 
-0.009002870974904551 0.008019194078725693 -0.01045733311869235 0.00114213255577052 -0.007695284514070067 -0.004164720205468348 
-0.006051778978656913 -0.003395960109774975 0.001360410224937852 0.008570572898745051 -0.006519618513275205 0.001250849459498179 
-0.002205025425484417 0.006942531770458874 0.007178709199391672 0.001305395198326464 -0.009327453754572923 -0.003770138420146944 
0.00211665712302258 -0.006033140701548091 0.001009226139970211 0.0016851057470033 0.005477191483830675 -0.0190867538451873 
0.02415425249163274 0.01115615527371435 0.000621146313148488 -0.01231165028243384 -0.008302406871573942 -0.01144721384472711 
0.01278914051044615 -0.03053811282575174 0.009195775515330479 0.002886065670685486 -0.01020553605801426 0.001163301764293864 
0.01156413469074147 -0.02544990402019124 -0.00790880605503113 0.02653052754994597 -0.01120107911231738 0.00133073867756065 
-0.02730189559049603 -0.0158587168722478 -0.005207709563875732 0.001935217063174121 0.003609225309735787 0.01950384786425248 
0.002020330899848083 -0.006642242488908818 0.01860844246607666 -0.007927507188042488 -0.03634375763099695 -0.0007518148849138377 
-0.0112401960445598 -0.001808360349036871 -0.00372033054585415 -0.007602650108481756 0.001669288113959026 0.01262870215096181 
0.00996537203361007 0.01679569149115497 -0.0057223196304949 0.0006534846989206324 -0.007911340255900031 -0.001984758302826255 
-0.01867686242282361 0.005844822716655483 0.002655518524236231 -0.007845738969509896 -0.002211242423510249 0.006791905350325527 
0.009113616791833973 -0.03100898385299619 -0.01255546455325541 0.0246430807635709 -0.02141073296187652 0.007997481872170498 
